-0.10928047448396683
-0.17263273894786835
-0.051697611808776855
-0.06549453735351562
-0.03943903371691704
0.174202561378479
-0.1846437007188797
0.09552459418773651
-0.025099169462919235
-0.030075309798121452
0.13653762638568878
-0.3226943612098694
-0.14834436774253845
0.12789830565452576
0.004067780915647745
-0.05727866664528847
-0.0021439932752400637
0.20313918590545654
0.3309830129146576
0.07312813401222229
0.4979773461818695
-0.04476472735404968
-0.08215085417032242
0.01489518117159605
-0.04637337103486061
0.057510167360305786
0.01902003400027752
0.0007453320431523025
-0.18181981146335602
-0.0001220214762724936
-0.13162194192409515
-0.12743200361728668
0.00599559536203742
-0.4274011552333832
0.11648095399141312
-0.1637469381093979
-0.06030699983239174
-0.2311263233423233
0.24187792837619781
-0.07861554622650146
0.02077651023864746
-0.02504422888159752
-0.044685084372758865
0.02832636423408985
-0.1745927631855011
0.07156585156917572
-0.057368017733097076
0.1207028180360794
-0.058132998645305634
-0.173465758562088
-0.1278180480003357
0.05373937636613846
0.045314181596040726
0.09497534483671188
0.010400901548564434
0.13877175748348236
-0.1366417109966278
0.2429303675889969
0.14511574804782867
0.481016606092453
-0.11793306469917297
-0.15927264094352722
0.16018666326999664
0.2255937159061432
0.0960426926612854
0.02994334138929844
-0.1757604330778122
-0.09503095597028732
0.2344568818807602
-0.24519412219524384
0.10253076255321503
-0.2431555539369583
-0.056964173913002014
-0.027843698859214783
-0.3461097478866577
0.0407402440905571
-0.2308519333600998
0.19122226536273956
0.16287752985954285
0.29598766565322876
-0.13699457049369812
0.005227625370025635
-0.1660332977771759
-0.07701990008354187
-0.11685631424188614
0.06832733005285263
-0.09836931526660919
-0.09128087013959885
-0.16489501297473907
0.06249350681900978
0.10230623930692673
-0.0057519180700182915
-0.17241904139518738
-0.008579702116549015
-0.12002097070217133
-0.18632395565509796
-0.053833335638046265
-0.067390576004982
-0.14795242249965668
0.026207834482192993
0.03998890519142151
-0.21991918981075287
-0.14984850585460663
-0.08312217891216278
-0.06793772429227829
-0.0789979100227356
-0.04214460402727127
0.37165185809135437
-0.18347395956516266
0.061245646327733994
-0.4772113263607025
-0.21703499555587769
-0.07051107287406921
-0.09999782592058182
-0.044747523963451385
0.08655974268913269
-0.13605155050754547
-0.1826281100511551
-0.0378931425511837
-0.29278475046157837
-0.13911281526088715
0.14129623770713806
0.29490527510643005
0.2760700285434723
-0.04458377882838249
0.3673258125782013
0.08779546618461609
-0.02091406285762787
0.20941206812858582
0.49935173988342285
0.1499083936214447
-0.13268084824085236
0.21515169739723206
0.2325022965669632
0.1448799967765808
-0.08232784271240234
-0.03271527588367462
-0.12761032581329346
0.11176900565624237
0.3875914216041565
-0.03794005140662193
-0.17950034141540527
0.3151920437812805
-0.040011562407016754
0.3260613977909088
0.010944366455078125
-0.4201946258544922
-0.1933039277791977
0.046442911028862
0.014547969214618206
0.041791290044784546
0.14870823919773102
-0.15567298233509064
-0.16159340739250183
0.49127399921417236
-0.14575515687465668
0.13040074706077576
-0.03247925266623497
-0.03337353467941284
-0.3072162866592407
0.3034771680831909
-0.0829165130853653
0.15031473338603973
-0.021192805841565132
0.17707838118076324
0.20579302310943604
0.10636632144451141
-0.1446046233177185
-0.16045530140399933
-0.026753120124340057
-0.06728703528642654
0.48735567927360535
0.1741018295288086
0.1841103881597519
-0.0893671065568924
0.14408724009990692
0.053045064210891724
-0.13100655376911163
-0.08456433564424515
-0.036975014954805374
-0.23806437849998474
-0.08057998865842819
-0.09746851027011871
0.14895325899124146
-0.003072655526921153
0.28690293431282043
0.09394228458404541
0.12006138265132904
-0.12438205629587173
0.07242055982351303
0.013842307962477207
0.07298177480697632
