0.025295786559581757
0.11944848299026489
-0.3335722088813782
0.11265663802623749
-0.11581806093454361
-0.05972260981798172
0.1142139732837677
-0.09508299082517624
0.03148464113473892
-0.011092609725892544
-0.04938412085175514
0.09100937098264694
-0.052085600793361664
0.036597926169633865
-0.12017903476953506
-0.1341623216867447
-0.00504567613825202
-0.0014378209598362446
-0.07629358023405075
-0.04913274943828583
-0.12549620866775513
0.23369471728801727
-0.08153535425662994
0.02450205199420452
-0.01123831421136856
0.13240362703800201
0.2578091621398926
-0.02444983646273613
0.07316898554563522
0.2081564962863922
0.059902895241975784
-0.01107547152787447
0.07055678218603134
0.005370731931179762
0.01394206564873457
-0.06900473684072495
0.09558143466711044
0.08212683349847794
-0.08924943953752518
0.023552270606160164
0.020884830504655838
0.20951777696609497
0.05700034275650978
0.10060691088438034
-0.15166634321212769
0.0514313206076622
0.060976509004831314
0.16120018064975739
0.046384796500205994
-0.2936084568500519
-0.19219636917114258
-0.03303951025009155
-0.22844314575195312
0.05225382000207901
-0.041984837502241135
-0.22856415808200836
-0.2237423062324524
-0.10398360341787338
-0.03947323188185692
0.02308555878698826
0.0852215588092804
-0.00375222135335207
0.09996481239795685
0.22243377566337585
0.1404488980770111
-0.08334378153085709
-0.015320869162678719
0.0008463882841169834
0.02001924067735672
-0.14661501348018646
-0.052505362778902054
-0.08178150653839111
0.381299763917923
-0.03465907275676727
-0.042693980038166046
0.018964678049087524
0.30155783891677856
0.1282287985086441
0.1379898190498352
0.12063036859035492
-0.03469501808285713
0.10009446740150452
-0.0796404480934143
-0.07506529986858368
0.10233310610055923
0.32207679748535156
0.21216587722301483
0.3071611523628235
-0.008173562586307526
0.13200485706329346
-0.06829305738210678
0.14088435471057892
-0.06301635503768921
-0.08226798474788666
0.03301937133073807
-0.1890794336795807
-0.0166338924318552
-0.18368734419345856
0.2002011090517044
0.06981410086154938
-0.013037523254752159
0.1311013251543045
0.19346944987773895
0.34633868932724
-0.04203082621097565
-0.016327641904354095
0.11963065713644028
-0.06829142570495605
-0.15022031962871552
0.009907589294016361
-0.3098682463169098
0.09003109484910965
-0.0811472237110138
-0.0524146668612957
-0.0901779755949974
0.05066912993788719
-0.026871783658862114
0.14879052340984344
-0.06082332134246826
-0.07068753987550735
-0.03437463939189911
0.1996537744998932
0.5526617765426636
-0.07153674215078354
-0.00949061755090952
0.10071329772472382
-0.009509722702205181
-0.02568027377128601
0.09776052832603455
0.01130878459662199
0.527282178401947
0.2715272605419159
0.13555942475795746
0.22963808476924896
-0.12627439200878143
0.013784272596240044
-0.022356338798999786
-0.18921248614788055
-0.045452602207660675
-0.029798122122883797
0.046674925833940506
-0.051737427711486816
-0.1754254847764969
-0.34337788820266724
-0.005725671537220478
-0.23548045754432678
0.053667861968278885
0.3490909934043884
-0.2341557741165161
-0.11249807476997375
0.031410299241542816
-0.09669436514377594
-0.1656494289636612
-0.002265317365527153
-0.259389728307724
0.05078109726309776
0.08976487070322037
-0.010747975669801235
0.12841829657554626
0.03552441671490669
0.03386779874563217
-0.005542225670069456
-0.09514269232749939
-0.030961040407419205
0.032034482806921005
0.0527174212038517
0.1262986660003662
0.15936298668384552
0.0358712375164032
0.03531097620725632
0.36974719166755676
0.017943454906344414
-0.02276317961513996
-0.09561726450920105
0.17291487753391266
0.051715221256017685
0.15322402119636536
-0.012241235002875328
0.25096485018730164
-0.016052374616265297
0.022399162873625755
-0.0286399032920599
0.11971379071474075
-0.02552894502878189
-0.04190845414996147
0.21012340486049652
-0.13479606807231903
-0.16478006541728973
-0.02569083869457245
-0.129161074757576
-0.1646299511194229
0.05387619510293007
0.11469212919473648
-0.11933675408363342
-0.05914551392197609
-0.15054601430892944
-0.02702932246029377
0.1071360632777214
-0.08810275048017502
0.11475113779306412
0.17446915805339813
0.1579732596874237
0.05246531590819359
-0.02879626862704754
0.2442956268787384
0.1458391696214676
0.0110519640147686
0.21881678700447083
0.39873963594436646
0.3207949101924896
-0.08724933117628098
-0.07731403410434723
0.05505504459142685
-0.07423882931470871
0.29941046237945557
-0.11195868253707886
0.020384667441248894
-0.16532620787620544
-0.08400822430849075
0.09192787110805511
-0.016281185671687126
-0.013455522246658802
0.03411063924431801
-0.15227513015270233
0.07997166365385056
-0.015467759221792221
0.09053000807762146
-0.12425179034471512
0.04085995629429817
0.06509730219841003
-0.03737816587090492
-0.025349441915750504
0.28863248229026794
-0.17786189913749695
0.0453791581094265
0.0803752914071083
-0.1185678094625473
0.12684811651706696
0.013253143057227135
0.004498399794101715
0.08375947922468185
0.15047331154346466
-0.07485590130090714
-0.0511440709233284
-0.15848936140537262
0.111109659075737
0.020428180694580078
0.01993863470852375
0.2496545910835266
0.21342706680297852
0.11921843141317368
0.15213347971439362
0.10118795186281204
-0.02020956762135029
0.018933234736323357
-0.15583279728889465
0.26089704036712646
-0.02902466058731079
0.06537775695323944
0.09363692253828049
-0.03349849209189415
-0.1044515073299408
0.14307250082492828
0.08096332848072052
-0.16299636662006378
0.1833442747592926
-0.06319113075733185
0.03444341942667961
0.022092871367931366
-0.10205557197332382
0.0872642919421196
0.01875114068388939
-0.1501416563987732
0.2393968552350998
0.22394625842571259
-0.024016836658120155
0.23109829425811768
-0.10960081964731216
-0.16952991485595703
-0.03636598214507103
-0.050821397453546524
0.07674539089202881
0.20642483234405518
0.0014263171469792724
0.11276966333389282
-0.20353758335113525
0.0806485265493393
0.20421260595321655
0.36916694045066833
0.12266071885824203
-0.023815499618649483
-0.07311045378446579
-0.01584547385573387
0.1277192234992981
-0.057867247611284256
0.28671762347221375
-0.0042655509896576405
-2.136289003829006e-05
0.2160504013299942
0.15520496666431427
-0.016204891726374626
-0.09720427542924881
-0.10046463459730148
-0.0199930090457201
-0.15216588973999023
-0.05961202457547188
0.0031248002778738737
-0.3412880599498749
0.16235865652561188
0.17470070719718933
0.20988164842128754
-0.06361453235149384
0.05469820648431778
-0.2456674724817276
0.12553022801876068
-0.044875551015138626
-0.05943940952420235
0.029392791911959648
0.15097831189632416
-0.04000755399465561
0.11208193004131317
-0.15518830716609955
0.5046804547309875
-0.047305308282375336
-0.07527874410152435
0.04262563958764076
-0.1338290572166443
-0.42012277245521545
0.3820066452026367
0.08941283822059631
0.05300699174404144
0.058240149170160294
0.0428675077855587
0.025089707225561142
0.19712789356708527
0.1011977270245552
-0.11192946135997772
-0.02808762900531292
0.3542284369468689
0.02381148748099804
0.12284363806247711
-0.1241571456193924
0.030930045992136
-0.11543566733598709
-0.02815212309360504
0.02365453913807869
0.015912236645817757
0.10023590177297592
0.11165644228458405
0.008482293225824833
-0.1308566778898239
0.09248755872249603
-0.005363001022487879
0.08932246267795563
0.05335419252514839
0.06651948392391205
0.03537848964333534
0.04481728747487068
-0.087586410343647
0.13602036237716675
0.18784399330615997
-0.037431489676237106
0.03459259122610092
0.03858651593327522
-0.19505736231803894
-0.08432582020759583
-0.06757453829050064
-0.01136539876461029
0.10825967788696289
-0.10933432728052139
-0.04530780389904976
0.02131846360862255
0.12106531858444214
0.11219599097967148
-0.09519787132740021
0.5095540881156921
-0.003250849898904562
0.05485684052109718
0.06715502589941025
0.10905309021472931
0.018573155626654625
-0.029313204810023308
0.011019118130207062
-0.011488552205264568
