0.05325198918581009
0.05647500604391098
0.012015191838145256
0.010474909096956253
0.01407291553914547
0.024920973926782608
0.04594292864203453
-0.012417564168572426
-0.052490636706352234
-0.01558032538741827
-0.021215423941612244
-0.03340747579932213
0.009583478793501854
0.018659153953194618
0.007109483238309622
-0.025248926132917404
-0.002955331699922681
0.006228545214980841
-0.030338065698742867
0.01771290972828865
0.04812758415937424
0.055309709161520004
0.04213721677660942
-0.034338898956775665
0.011160576716065407
-0.03700505569577217
-0.03799792751669884
-0.022496525198221207
-0.013564159162342548
0.11124513298273087
0.031009772792458534
0.006856938824057579
-0.015972627326846123
-0.009243723936378956
0.04368095472455025
-0.02616787888109684
-0.003045360092073679
0.02633546106517315
0.010302155278623104
0.02939637005329132
-0.016149209812283516
0.030832722783088684
0.040435995906591415
0.06680306047201157
0.024527166038751602
0.04631160944700241
0.0061914012767374516
0.08059383183717728
0.059731993824243546
0.061412908136844635
0.0016578779323026538
0.06717914342880249
-0.004229367710649967
-0.014658553525805473
-0.06767596304416656
-0.008381791412830353
-0.05803632363677025
0.00819140113890171
0.03968415409326553
0.028476953506469727
-0.12423989176750183
0.03926176205277443
0.00917868223041296
0.06872835755348206
0.04066256433725357
-0.010124160908162594
0.01223889272660017
-0.002727495739236474
-0.021133773028850555
0.09318570047616959
0.00461396062746644
0.02633778192102909
0.04461495950818062
-0.012070725671947002
-0.030605969950556755
0.06968121230602264
0.043573278933763504
-0.007040000520646572
0.03430167958140373
0.018671339377760887
-0.0023979535326361656
-0.007958808913826942
-0.026700641959905624
-0.023112397640943527
-0.021024279296398163
0.007592685520648956
-0.04085372015833855
0.09650406986474991
0.016272569075226784
0.06826470047235489
-0.012029302306473255
0.01861567795276642
-0.023254312574863434
0.0006625368259847164
0.06577027589082718
0.02079678513109684
0.04604563117027283
-0.012563400901854038
0.0158372949808836
-0.062018632888793945
0.016889698803424835
0.029346222057938576
0.012198886834084988
0.11578855663537979
0.018052462488412857
0.08350112289190292
0.046795252710580826
-0.005966105032712221
0.04397842660546303
-0.08977628499269485
-0.08620981872081757
0.048309795558452606
-0.021314634010195732
0.007120055146515369
-0.03142770007252693
-0.022255530580878258
0.09247790277004242
0.057418908923864365
-0.0002909425529651344
-0.015966175124049187
0.09013894945383072
-0.018068471923470497
0.05207982286810875
-0.010921536013484001
-0.059916481375694275
0.06952764093875885
-0.004041542764753103
-0.02407774329185486
0.012984136119484901
0.008996289223432541
-0.03203291445970535
0.0017807002877816558
0.039556216448545456
-0.007130990736186504
-0.08640787750482559
-0.05283603444695473
-0.03027939610183239
-0.0029700538143515587
0.028984900563955307
-0.006058610510081053
-0.01563246175646782
-0.015262890607118607
-0.014647211879491806
-0.06352511793375015
-0.03961259126663208
-0.007783662993460894
-0.007842453196644783
0.0007109956932254136
-0.0007767962524667382
0.04902341589331627
-0.0022288886830210686
0.006439725402742624
-0.09088156372308731
0.041336119174957275
-0.006346024107187986
0.014305769465863705
0.003830252680927515
-0.03127816319465637
-0.07262646406888962
-0.03503100574016571
-0.021358925849199295
0.06832379102706909
0.04504166916012764
0.02851358987390995
0.03295913711190224
-0.04669279605150223
-0.010622904635965824
-0.06045634672045708
0.02347235009074211
0.019998623058199883
0.025433233007788658
0.07609183341264725
-0.0062513998709619045
-0.025429347530007362
0.06623709201812744
-0.05791349336504936
-0.018797291442751884
0.04271625727415085
0.05182088166475296
-0.0690288245677948
-0.015345930121839046
0.023568106815218925
0.05270260199904442
0.05555106699466705
-0.00847200769931078
-0.012148711830377579
-0.0027646860107779503
-0.0014819165226072073
-0.02312362752854824
0.008990769274532795
-0.0037235566414892673
0.05526318773627281
0.030675701797008514
-0.03222758695483208
-0.006940140854567289
0.050184961408376694
0.02882140316069126
0.00366804888471961
-0.028822824358940125
0.05042634159326553
-0.10344215482473373
-0.0021275936160236597
0.043639522045850754
0.030670152977108955
0.011708194389939308
-0.008269245736300945
-0.0008799417992122471
-0.007996771484613419
-0.058293890208005905
0.07052420824766159
-0.020285729318857193
0.002024491550400853
-0.0050411829724907875
-0.017595695331692696
0.002131108660250902
-0.012316392734646797
0.015342463739216328
0.03277617320418358
0.005175871774554253
-0.04148557037115097
-0.007366142235696316
-0.01938023790717125
0.03304683789610863
0.08380180597305298
-0.01955260895192623
0.07287353277206421
-0.00355801940895617
-0.08186852186918259
0.026473654434084892
0.04944637790322304
0.029175003990530968
-0.07604414969682693
-0.023432444781064987
0.022784149274230003
0.010187597945332527
0.010420124046504498
0.00537743978202343
0.05404593050479889
0.014066822826862335
0.04028690606355667
-0.04932066798210144
-0.01442860160022974
-0.04619229584932327
-0.014585939235985279
-0.026138778775930405
-0.0004256230313330889
-0.05014505609869957
0.03398736193776131
-0.053158655762672424
-0.05543040111660957
0.003695419291034341
-0.0011041349498555064
0.028348587453365326
-0.04421069845557213
0.05948185175657272
-0.015720508992671967
-0.02685755491256714
0.029261073097586632
0.009501074440777302
0.0024154086131602526
0.013512845151126385
0.028245463967323303
-0.06466349959373474
0.053229834884405136
-0.04392363876104355
0.00034698197850957513
0.017564432695508003
-0.0917254239320755
-0.023233214393258095
0.022275535389780998
0.04063550755381584
0.05217181146144867
0.035887710750103
0.006812990643084049
0.010692260228097439
0.0021173269487917423
-0.0017579528503119946
-0.0027246642857789993
-0.0483400821685791
0.013375375419855118
-0.02660534158349037
0.08571194112300873
-0.07357603311538696
0.023194335401058197
0.05653504654765129
0.03653135523200035
0.07107550650835037
-0.020128283649683
-0.05668353661894798
0.04117627069354057
-0.017056791111826897
0.0013072459260001779
0.013561111874878407
-0.08149902522563934
-0.01937839388847351
0.03558112308382988
0.03251836076378822
0.06205566227436066
-0.03897175192832947
0.0404435433447361
-0.037356212735176086
-0.025330407544970512
-0.04501214995980263
-0.05688953772187233
-0.06569217890501022
0.05448400601744652
0.04505353048443794
-0.07430846244096756
0.0011786894174292684
0.000532843463588506
-0.06727537512779236
-0.05602601543068886
-0.07042624801397324
0.06487125903367996
0.041639089584350586
0.08347476273775101
0.03598171845078468
0.02095574326813221
0.025102533400058746
-0.016456132754683495
-0.011024336330592632
-0.026935195550322533
-0.009141413494944572
-0.050469107925891876
0.05223752185702324
-0.026816636323928833
0.014413674362003803
-0.10621457546949387
-0.04659752547740936
-0.025113672018051147
0.008472288958728313
-0.02571110986173153
0.09371233731508255
0.07280056178569794
0.025252534076571465
0.02181237004697323
0.03333568945527077
0.01632586307823658
-0.05273556336760521
0.055629897862672806
-0.013830103911459446
-0.040054257959127426
0.00873400829732418
0.03133251518011093
0.03424063324928284
-0.05162731558084488
0.027252210304141045
0.02604082226753235
-0.05224981904029846
0.02616201713681221
0.05100684612989426
0.02819463610649109
-0.02446962520480156
0.012946296483278275
0.0527648851275444
-0.01876184530556202
-0.031476009637117386
0.0005516321398317814
0.010595256462693214
0.06402615457773209
-0.01014519203454256
0.06171088293194771
0.02951968088746071
0.03869960457086563
0.044009506702423096
0.02861407957971096
0.05703960731625557
0.04614265635609627
-0.033167339861392975
0.025788845494389534
-0.009944602847099304
-0.0030128038488328457
0.00984793808311224
0.03398057073354721
-0.01564873196184635
-0.00995086319744587
0.049873560667037964
-0.0006354752113111317
0.02899489738047123
0.007914380170404911
-0.0624985471367836
-0.051306772977113724
0.026480071246623993
0.014116614125669003
-0.024592909961938858
0.009729957208037376
-0.01090104691684246
0.027392929419875145
0.015525600872933865
0.04275710880756378
-0.04260548949241638
0.013845100067555904
-0.016239788383245468
0.04381490498781204
-0.0023015402257442474
-0.002274533035233617
0.027163421735167503
0.035608332604169846
-0.039026640355587006
0.0747954398393631
0.0029544909484684467
0.024382758885622025
0.0038494819309562445
0.007304140832275152
-0.0358496829867363
0.09017197042703629
-0.0019557804334908724
-0.09682883322238922
-0.06601940095424652
-0.12338642030954361
0.08529264479875565
-0.028016187250614166
-0.042111288756132126
0.003454335732385516
-0.005970384925603867
-0.0406985804438591
0.09316690266132355
0.003848157823085785
-0.004133366513997316
0.009720591828227043
0.01718742959201336
-0.018781419843435287
-0.02058768831193447
0.064881831407547
0.061634305864572525
-4.533806350082159e-05
-0.047089796513319016
-0.1321296989917755
0.0284664835780859
-0.028056850656867027
0.058502890169620514
0.06689519435167313
-0.034372478723526
-0.014239475131034851
-0.03059864602982998
0.019456371665000916
-0.03323758393526077
-0.024987773969769478
-9.036702977027744e-05
-0.046692393720149994
-0.048098400235176086
0.01927132159471512
0.024073263630270958
0.02253916673362255
-0.005878536496311426
0.015557808801531792
0.004088597372174263
-0.07830597460269928
0.08631621301174164
-0.01415689941495657
0.08770326524972916
0.011080285534262657
0.024185601621866226
0.0008980229031294584
-0.01205648947507143
-0.017417853698134422
-0.003562749596312642
-0.032366469502449036
-0.0013965002726763487
-0.026253273710608482
-0.024456646293401718
0.01656286045908928
-0.018416499719023705
-0.10767132043838501
0.009639757685363293
0.04280121624469757
0.06026192754507065
0.03942258283495903
-0.07120781391859055
0.03175570070743561
-0.05845115706324577
-0.041126422584056854
-0.03647040203213692
0.03204731270670891
0.010938058607280254
0.15454153716564178
0.038895413279533386
0.0407501645386219
0.02854357659816742
-0.0872412621974945
0.04425351694226265
-0.005856703035533428
-0.02453923597931862
-0.03717661276459694
-0.061798468232154846
0.002911932300776243
-0.015437819994986057
-0.06955105811357498
-0.13111475110054016
0.025558754801750183
0.015084965154528618
0.07010339945554733
0.03326590731739998
-0.026813792064785957
-0.11635326594114304
-0.013399861752986908
0.10656074434518814
-0.16285362839698792
0.0334746353328228
-0.03217719495296478
0.04845599830150604
-0.011729604564607143
-0.08806746453046799
-0.0358804352581501
0.013473880477249622
-0.020325692370533943
-0.12883514165878296
-0.05674191564321518
-0.06596268713474274
0.012026360258460045
-0.025221453979611397
-0.023784756660461426
-0.009676172398030758
-0.037816066294908524
0.019221443682909012
0.004861850291490555
-0.002440967597067356
-0.026033543050289154
-0.019116809591650963
-0.0008222538162954152
0.01786847785115242
-0.02742692083120346
0.041340649127960205
0.024171695113182068
0.0689622312784195
0.06365585327148438
0.04332417994737625
-0.0168024729937315
-0.017103195190429688
0.032263439148664474
-0.04477559030056
-0.0832173079252243
-0.018282948061823845
0.05836698040366173
0.03140629827976227
0.05628170818090439
-0.11132196336984634
0.07298848778009415
-0.10902778804302216
0.029205920174717903
-0.027820587158203125
-0.12398481369018555
-0.025644630193710327
-0.0572575218975544
0.00812583602964878
0.02633189968764782
-0.02049507573246956
-0.046249937266111374
0.0028907819651067257
0.09555643051862717
0.04420057684183121
-0.002781215589493513
0.0022221470717340708
-0.04531574621796608
-0.04313049092888832
-0.05841480568051338
0.03256366774439812
0.05761406198143959
-0.07856912165880203
-0.06793630868196487
-0.006639207247644663
0.046498943120241165
-0.05693785473704338
0.06351006776094437
0.06634124368429184
0.01305414643138647
-0.010774142108857632
-0.05500703305006027
0.049877412617206573
0.020793268457055092
0.015054224990308285
-0.017921188846230507
-0.06643041223287582
0.059132274240255356
0.0211055688560009
0.018960630521178246
-0.010129163973033428
0.018008174374699593
-0.03543461486697197
0.014764241874217987
-0.007588867098093033
-0.08366144448518753
-0.05221113562583923
0.06849106401205063
-0.029038529843091965
-0.019383123144507408
0.015508197247982025
-0.01830551028251648
-0.00368093722499907
0.0504201278090477
-0.05534844100475311
0.005007051397114992
0.0032703885808587074
-0.005469283554702997
0.08326353877782822
-0.026979755610227585
-0.03852391615509987
0.07767318189144135
0.03867851942777634
-0.04347570240497589
-0.06377752870321274
0.00717264274135232
0.03636503219604492
0.03558104857802391
0.018564855679869652
-0.015428101643919945
0.03940437361598015
0.010108020156621933
0.009334096685051918
-0.04714617505669594
0.03631332144141197
0.0013648454332724214
0.04942778870463371
0.011901619844138622
-0.006454219575971365
-0.0492541640996933
-0.11962852627038956
0.09904231131076813
-0.02693416364490986
-0.07827230542898178
0.005636079236865044
0.012645234353840351
-0.00396181084215641
0.0229643601924181
-0.03206358477473259
-0.046960391104221344
-0.03338097780942917
0.029637491330504417
-0.03617307171225548
0.0030284752137959003
0.017762931063771248
-0.024117033928632736
-0.05602763593196869
0.035109613090753555
0.07250238955020905
-0.056725818663835526
-0.06127672642469406
-0.06232978031039238
-0.06427516788244247
-0.02198149263858795
-0.016377661377191544
-0.0722629502415657
0.03991697356104851
-0.09776515513658524
-0.04768459498882294
-0.0019302109722048044
-0.024835623800754547
0.0024877693504095078
0.05683401972055435
0.010820455849170685
-0.03261265531182289
0.027537288144230843
0.0053601511754095554
0.011121551506221294
-0.03476329892873764
0.03488947078585625
0.011450417339801788
-0.03356456756591797
0.018182359635829926
-0.02528536319732666
0.07625904679298401
-0.01792309805750847
0.008624350652098656
-0.05680062621831894
-0.020028987899422646
-0.007346387021243572
0.007828650996088982
-0.026822159066796303
0.004827323369681835
0.0962376818060875
0.018904052674770355
0.035163514316082
0.07927113026380539
-0.014469408430159092
0.08479363471269608
0.023145398125052452
-0.04863467812538147
-0.0189802423119545
0.0132107799872756
-0.011367345228791237
0.05634531378746033
-0.03212912753224373
0.009492662735283375
-0.04367217794060707
-0.05838538333773613
0.02447681315243244
-0.04112282022833824
-0.017409665510058403
-0.02221224084496498
-0.041424963623285294
0.04228869453072548
0.08790899813175201
0.02786969020962715
-0.07839317619800568
0.0006713479524478316
0.0035587477032095194
-0.021711893379688263
0.02300146222114563
-0.08103156089782715
0.007331940345466137
-0.000332959316438064
0.01686384715139866
0.017027784138917923
0.04505237564444542
0.0024303654208779335
-0.07477741688489914
0.060088999569416046
0.06951654702425003
-0.05770953744649887
0.004690162371844053
-0.0038818775210529566
-0.0582096241414547
-0.0011185380863025784
0.09091858565807343
-0.008733886294066906
0.06496696174144745
0.01875925436615944
-0.05048738420009613
-0.049777667969465256
0.04993972182273865
0.023460231721401215
-0.014869295060634613
0.0077824098989367485
-0.024575864896178246
-0.04548747092485428
-0.026208041235804558
0.1301693469285965
0.016476498916745186
-0.030706651508808136
-0.022028816863894463
-0.02696738764643669
0.005298208445310593
0.017464682459831238
-0.09546315670013428
-0.08545968681573868
-0.002026564907282591
-0.0029332584235817194
-0.06485015153884888
0.07874932885169983
0.12722057104110718
-0.03047369234263897
0.007920201867818832
-0.014629260636866093
0.049757201224565506
-0.06183547154068947
0.042073581367731094
0.007310236804187298
0.047386571764945984
-0.010757461190223694
0.06573440134525299
-0.004554661922156811
0.0027735279873013496
0.029592450708150864
0.005864766892045736
-0.12237754464149475
0.057965800166130066
0.060512930154800415
-0.01685948297381401
-0.044747207313776016
-0.034609727561473846
0.04519365355372429
0.000685503997374326
-0.03097054548561573
0.0622016005218029
-0.03658067062497139
-0.027143077924847603
0.014357498846948147
-0.002318291924893856
-0.0013556905323639512
-0.023418962955474854
0.07294527441263199
-0.016167396679520607
-0.06432244926691055
-0.06639350205659866
0.00879763439297676
0.005580822937190533
0.03442792221903801
0.043121468275785446
-0.09252600371837616
-0.06906893104314804
0.0077242162078619
0.005183584056794643
-0.057448890060186386
-0.02280636690557003
-0.04306522011756897
0.1433960199356079
0.034542009234428406
-0.03338097035884857
0.06807257980108261
-0.04312180355191231
-0.047610584646463394
0.012632820755243301
0.005024523939937353
0.05310659855604172
0.06660622358322144
0.0007794129196554422
0.021566564217209816
0.02819254621863365
-0.006478132680058479
0.0468020923435688
-0.08177945762872696
0.04510176554322243
0.043365105986595154
0.05088360607624054
0.005087388679385185
-0.04099089279770851
-0.05636916682124138
0.043932441622018814
-0.011832489632070065
-0.033234987407922745
-0.07408125698566437
-0.03190646693110466
0.016910184174776077
-0.03590685874223709
0.0019497915636748075
0.003738705301657319
0.07781491428613663
-0.03884700685739517
-0.05237273871898651
0.03972233086824417
-0.012653175741434097
-0.04873011261224747
0.02352931536734104
0.01201528962701559
-0.023584388196468353
-0.004214325919747353
-0.07182881981134415
-0.08983034640550613
-0.018454652279615402
-0.05936179682612419
0.01771743781864643
0.05438369885087013
0.003653680207207799
0.005380268208682537
0.07903088629245758
0.022239891812205315
-0.010548990219831467
-0.004544854164123535
-0.02883356250822544
-0.01040230318903923
0.0026980096008628607
-0.047862857580184937
-0.0007349778315983713
0.08846466988325119
-0.020005710422992706
-0.010358275845646858
-0.013307344168424606
0.020518410950899124
0.005821894854307175
-0.040320683270692825
-0.008306351490318775
-0.04748402163386345
-0.0711052194237709
0.02809494361281395
0.007169227581471205
0.05317840352654457
-0.007290466222912073
-0.020804719999432564
-0.0692598819732666
0.04513368010520935
-0.012814014218747616
0.012746213003993034
-0.004928033798933029
0.024690650403499603
-0.03442162647843361
0.06314434111118317
-0.02178119122982025
-0.05059705674648285
-0.07554847002029419
-0.03239147365093231
0.012470408342778683
-0.06660908460617065
-0.03313422203063965
-0.02659064158797264
-0.04146530479192734
-0.01882728561758995
-0.0003047302598133683
0.015325292944908142
-0.047331977635622025
-0.055675990879535675
0.02146034501492977
0.019186364486813545
0.005355577915906906
-0.03152795881032944
0.009798743762075901
-0.05790640041232109
-0.03704051673412323
0.0201252568513155
-0.0053023179061710835
0.0030508674681186676
0.030903296545147896
-0.01980961300432682
-0.025124114006757736
0.02512335404753685
0.021904511377215385
0.0016592206666246057
0.008009961806237698
0.021627893671393394
-0.04967911168932915
-0.06829672306776047
0.002988141728565097
0.011875313706696033
-0.06679211556911469
0.01385474856942892
0.061321813613176346
0.07828031480312347
0.043106723576784134
-0.040547989308834076
0.013511654920876026
0.03322915732860565
-0.05143430456519127
-0.0758630707859993
-0.03187922388315201
-0.018830763176083565
-0.005071121267974377
0.049725234508514404
0.008444799110293388
0.03932608664035797
0.07141711562871933
0.04936858266592026
-0.027339747175574303
0.07947918772697449
0.00018442627333570272
0.03490323945879936
0.026847610250115395
0.029324881732463837
0.024565093219280243
0.013714202679693699
0.010438933037221432
0.08216581493616104
0.022897837683558464
-0.04990105330944061
-0.1284874528646469
0.04496467486023903
0.05431950092315674
0.03090284764766693
0.027643760666251183
-0.05035410448908806
-0.025691388174891472
-0.006249303463846445
0.02713567391037941
0.011583044193685055
0.01887107640504837
-0.03574422374367714
-0.06061875447630882
-0.012422140687704086
-0.014326350763440132
-0.09867650270462036
-0.03842279314994812
-0.03864692524075508
-0.09158114343881607
-0.04236840456724167
-0.04988463222980499
-0.01603284850716591
-0.045561641454696655
0.024515025317668915
-0.021699124947190285
0.00378265418112278
-0.03475749120116234
-0.04127620905637741
0.033561430871486664
0.05794515833258629
0.06392743438482285
0.007158386521041393
0.028452184051275253
0.1112305298447609
-0.022849857807159424
0.013239246793091297
-0.08639762550592422
0.04552561789751053
-0.0029061937239021063
0.06443733721971512
0.02363867498934269
-0.06821799278259277
0.035061560571193695
-0.01684587076306343
0.02871832251548767
0.028397753834724426
-0.000998607836663723
-0.004561786539852619
0.035557907074689865
0.044268254190683365
0.07908036559820175
0.01617906056344509
-0.005604511126875877
-0.030646683648228645
0.027646921575069427
-0.10381399095058441
-0.032340455800294876
-0.008279775269329548
-0.012683198787271976
-0.06834640353918076
-0.008544523268938065
-0.011209076270461082
0.03132059425115585
-0.010558199137449265
-0.020958848297595978
0.030058933421969414
-0.052112165838479996
0.023731358349323273
