-0.06290838122367859
0.12598846852779388
0.2990964353084564
0.11226281523704529
0.28528547286987305
0.1279953122138977
0.18280531466007233
-0.030966246500611305
0.5452067255973816
0.15652388334274292
-0.13416868448257446
-0.17108045518398285
0.27399006485939026
0.2277352660894394
0.267150342464447
0.26191574335098267
0.045637015253305435
-1.4264352321624756
0.6094993352890015
0.08235283941030502
0.09638243168592453
0.15679092705249786
-0.2905292510986328
0.12641866505146027
0.20994864404201508
0.07245919108390808
-0.00027235716697759926
-0.22085970640182495
0.11173402518033981
0.4803164303302765
0.03551496937870979
-0.2749064266681671
-0.5027452111244202
0.0006961546605452895
-0.12265832722187042
0.1487755924463272
-0.00821028370410204
0.13205690681934357
0.2992042303085327
-0.16474008560180664
0.32464659214019775
0.5348896980285645
0.24496035277843475
0.5993566513061523
0.033781521022319794
0.06639021635055542
0.48976409435272217
0.42106205224990845
0.6346579194068909
-0.0946800634264946
-0.07850086688995361
0.2569721043109894
0.07667075097560883
-0.2392701357603073
0.1710352897644043
0.41678231954574585
0.26976194977760315
-0.4600410759449005
-0.08452774584293365
0.277831494808197
0.2675016522407532
0.33214664459228516
0.05068017542362213
-0.08629737794399261
-0.2100708782672882
-0.052221957594156265
-0.041103262454271317
-0.1391584724187851
-0.3049004077911377
0.30166739225387573
0.23581185936927795
-0.38735970854759216
-0.06012498214840889
0.9037480354309082
-0.14003701508045197
0.5319709777832031
0.23183917999267578
0.20689284801483154
0.23384323716163635
-0.36392784118652344
0.22036197781562805
-0.5408197641372681
-0.6492515206336975
0.09846930205821991
0.3403003215789795
0.28475111722946167
-0.11667996644973755
-0.14938099682331085
0.26740390062332153
-0.14694786071777344
0.05287635698914528
0.29655760526657104
0.014840702526271343
0.17319993674755096
0.1521109640598297
0.011128472164273262
-0.024401912465691566
-0.09261730313301086
-0.054720401763916016
0.1777079552412033
0.007646186277270317
-0.015597986057400703
-0.019970562309026718
0.030060360208153725
0.34280067682266235
0.1848372519016266
-0.18929840624332428
0.11916827410459518
0.04384453594684601
0.24088390171527863
-0.12948408722877502
0.2865862548351288
-0.3398256003856659
0.17242060601711273
-0.013950712978839874
-0.03323793783783913
-0.21373675763607025
-0.3905008137226105
0.6983038187026978
0.02869802713394165
0.07481379806995392
0.15877237915992737
0.16203133761882782
0.0387144610285759
0.14981013536453247
-0.0705728679895401
0.28210389614105225
0.30193033814430237
-0.4792499840259552
0.09476744383573532
-0.2582486569881439
-0.3049790561199188
0.37155279517173767
0.0425407849252224
0.22961653769016266
0.07177575677633286
0.10766928642988205
0.2119685411453247
0.28017887473106384
0.3750784993171692
-0.12975391745567322
0.22353145480155945
0.015561260282993317
0.29895415902137756
0.5827124714851379
0.4476662576198578
0.31933629512786865
0.15509139001369476
0.1608118861913681
0.24762332439422607
-0.670926034450531
0.24883897602558136
0.14737243950366974
0.09329518675804138
0.23991549015045166
-0.2536272406578064
-0.05824653431773186
0.22407720983028412
0.1591986119747162
-0.056825216859579086
0.4653041362762451
-0.21165738999843597
-0.3183911442756653
-1.2303478717803955
0.12067577242851257
-0.010087590664625168
0.33144426345825195
0.8852930665016174
-0.050530314445495605
0.40094584226608276
-0.12922988831996918
-0.06652093678712845
0.26928606629371643
0.2967742085456848
-0.5151181221008301
-0.13941171765327454
0.0339861623942852
0.5052593350410461
0.23880460858345032
0.09040512889623642
0.2860543727874756
-0.05369953811168671
-0.2304253727197647
-0.0695277750492096
0.06275037676095963
-0.0835273414850235
-0.14609608054161072
0.18069273233413696
-0.17798149585723877
-0.09776488691568375
-0.00644754059612751
0.8114780187606812
0.20051659643650055
0.3070964813232422
-0.23601345717906952
0.07317791879177094
0.11171755939722061
0.28365594148635864
0.06696169823408127
0.1610727310180664
-0.6772254109382629
0.13817311823368073
0.17344391345977783
-0.044210195541381836
-0.2505963146686554
-0.2652093470096588
0.1672533005475998
-0.16838438808918
-0.08510532975196838
0.1246180534362793
0.04213305190205574
0.10998151451349258
0.4331485629081726
0.14761823415756226
-0.02240275964140892
0.21770277619361877
0.059077825397253036
0.29927077889442444
0.08478975296020508
-0.2806119918823242
0.03736152499914169
-0.19943849742412567
-0.48671573400497437
0.20393642783164978
0.1982421875
0.13827985525131226
0.0302061028778553
-0.20721493661403656
0.7092065215110779
-0.10912356525659561
0.48155057430267334
0.2920004725456238
0.04785197973251343
-0.79537433385849
-0.04411527141928673
0.13330906629562378
-0.19617217779159546
0.33779439330101013
0.40619662404060364
-0.11334287375211716
0.05168381333351135
0.07736067473888397
0.26790687441825867
0.3281960189342499
0.18926316499710083
-0.021591808646917343
0.0531412735581398
-0.24303051829338074
0.1592002660036087
0.5749092698097229
0.07732348144054413
-0.007190325763076544
0.31148624420166016
0.0331968329846859
0.27631697058677673
0.14342741668224335
