0.032357145100831985
0.06209319084882736
-0.05569664016366005
0.011469539254903793
0.012374896556138992
0.039293136447668076
0.044568222016096115
0.0014784584054723382
0.020631810650229454
0.02354241907596588
0.04475414380431175
0.01116420328617096
0.0389014407992363
0.006921874824911356
0.018731484189629555
-0.018335914239287376
-0.00829574465751648
-0.024103587493300438
-0.0017553362995386124
0.02261899784207344
0.049009885638952255
-0.004468962084501982
0.03277481347322464
0.0006026906776241958
0.005232999566942453
0.024173956364393234
0.013264309614896774
0.02301424741744995
0.020022932440042496
0.019277824088931084
0.029596811160445213
0.019124558195471764
-0.013337233103811741
-0.008009125478565693
0.004180081654340029
0.04744953289628029
0.012926262803375721
-0.016859255731105804
0.0074380384758114815
-0.013261412270367146
0.004240063019096851
0.020994950085878372
0.024031782522797585
0.04448419436812401
-0.019230462610721588
0.012350033968687057
-0.030249638482928276
0.039763059467077255
0.0017294581048190594
-0.015769748017191887
-0.05475743114948273
-0.01097798440605402
0.05749604478478432
-0.020123854279518127
-0.02095644362270832
-0.03465457633137703
0.004082931205630302
-0.002718001138418913
0.0019034919096156955
-0.013896864838898182
0.018562637269496918
-0.004262610338628292
0.025726258754730225
0.008295784704387188
0.0005245814099907875
0.02948063425719738
0.006062411703169346
-0.014458996243774891
-0.009822666645050049
-0.037166349589824677
0.041064515709877014
-0.03175574168562889
-0.003362819319590926
0.030378226190805435
-0.009082816541194916
0.0004331121454015374
-0.01315238419920206
0.014692921191453934
-0.000450268475105986
0.0033620339818298817
0.02790685184299946
0.004919752012938261
-0.004972050432115793
0.0013880273327231407
-0.007326372899115086
0.013741663657128811
0.01832501031458378
0.018118146806955338
-0.0033013965003192425
-0.008472463116049767
-0.0027774875052273273
0.0051557631231844425
-0.009369036182761192
0.007066306658089161
-0.02075781859457493
-0.026298291981220245
-0.002372555900365114
-0.015606909990310669
0.023453161120414734
0.013077229261398315
0.0033997150603681803
0.0036815679632127285
0.01884719543159008
0.012500283308327198
0.014112606644630432
0.001234563416801393
-0.009644548408687115
0.01702168956398964
0.05031028762459755
0.02313828654587269
0.02438644878566265
0.041134513914585114
-0.001308564213104546
0.03832535445690155
-0.03585395589470863
0.01514221727848053
0.03628240525722504
0.016759851947426796
-0.00229607499204576
-0.038180142641067505
-0.020091526210308075
-0.011109472252428532
0.006946979556232691
0.037577077746391296
0.029153874143958092
0.04352381452918053
0.00984261929988861
0.007805234286934137
0.021170971915125847
-0.003984670154750347
-0.017681416124105453
-0.00915827602148056
0.0027116332203149796
-0.006229096092283726
0.014113194309175014
-0.009536653757095337
0.003467437345534563
0.01414326298981905
-0.028490161523222923
0.07982272654771805
0.013791022822260857
-0.008044984191656113
0.008646595291793346
-0.013631253503262997
0.01569691114127636
0.00795880425721407
-0.006355654448270798
-0.003555595176294446
0.026715241372585297
-0.013403574004769325
0.017752937972545624
0.03219626098871231
-0.0024085831828415394
0.02598091959953308
0.060286037623882294
-0.005439608357846737
0.015573021955788136
-0.02892969734966755
-0.018635859712958336
-0.024648992344737053
-9.993251296691597e-05
-0.019236179068684578
-0.016887767240405083
0.02253009006381035
0.009071105159819126
0.018021732568740845
-0.002385798841714859
0.016272427514195442
-0.04485149681568146
0.01347370631992817
-0.001924219075590372
0.04397578909993172
0.010240388102829456
-0.04381706938147545
0.007542512845247984
-0.0005065128789283335
0.02318595163524151
-0.028931617736816406
0.01550329104065895
-0.024839922785758972
-0.014507307671010494
0.021034449338912964
-0.0278865247964859
-0.013591103255748749
0.0435921773314476
0.008577442727982998
0.008114675991237164
0.040950242429971695
0.03512130677700043
0.03177157789468765
0.02740374207496643
0.021836182102560997
0.02432936802506447
0.0039358860813081264
0.039277125149965286
-0.03260975703597069
0.013362335041165352
-0.01643252931535244
-0.006775260902941227
0.018823549151420593
-0.009051659144461155
-0.008624549955129623
-0.01911286450922489
0.005672018509358168
-0.013550646603107452
-0.011986486613750458
-0.014630607329308987
-0.005788816139101982
0.012110337615013123
-0.02988036721944809
0.018032632768154144
0.03084220364689827
0.01685025356709957
0.04162988066673279
-0.030265813693404198
0.03464969992637634
0.02250736951828003
-0.0038164001889526844
0.018254462629556656
0.029450083151459694
0.024408787488937378
-0.0021707487758249044
0.0016160904197022319
0.012383634224534035
0.034597910940647125
0.0062620555981993675
0.011502946726977825
0.03517811745405197
-0.027494894340634346
-0.011823581531643867
0.033038582652807236
0.02175946533679962
-0.003908129408955574
-0.015129371546208858
0.001376254833303392
0.008662544190883636
0.010680336505174637
-0.011390699073672295
0.02954288199543953
-0.01651727221906185
-0.02011811174452305
0.017308911308646202
0.0017061666585505009
0.028935298323631287
0.0007932870648801327
0.017164593562483788
0.002408762462437153
-0.01787625439465046
0.06039663776755333
-0.03551787510514259
-0.0012712599709630013
0.010435509495437145
0.007501841057091951
0.02695588581264019
0.010357349179685116
-0.005995979532599449
0.011835748329758644
0.017305545508861542
0.026264723390340805
0.005816419143229723
0.017640165984630585
0.010505174286663532
0.006378087215125561
0.008785123005509377
0.02270631305873394
0.03308001533150673
0.022206995636224747
0.03164151683449745
0.06392893195152283
0.01174391433596611
0.017660805955529213
0.02070189267396927
0.023174423724412918
0.0008607227937318385
-0.014628947712481022
0.013038299046456814
0.012128816917538643
0.02407449297606945
-0.0005069581675343215
0.010741714388132095
0.03150511533021927
0.05225125327706337
0.027368318289518356
0.09408088773488998
0.0030708604026585817
-0.048230595886707306
-0.0001571903412695974
0.03211608901619911
0.027654055505990982
-0.03165607526898384
0.011468765325844288
0.02518719621002674
-0.02277698740363121
0.04138392210006714
0.01906161569058895
0.014525903388857841
0.028674380853772163
0.0483478307723999
0.012955219484865665
-0.024979569017887115
0.02191493846476078
0.020794052630662918
0.003443943103775382
0.013501057401299477
-0.01672022044658661
-0.006089921575039625
0.01431558933109045
-0.014655117876827717
0.033870577812194824
0.0003374679072294384
0.007156569045037031
0.04259440675377846
0.022792205214500427
-0.003680483903735876
0.057385675609111786
0.03246856480836868
0.046953391283750534
-0.009550261311233044
-0.009282470680773258
0.0053435335867106915
-0.04817395284771919
-0.026858430355787277
0.012412813492119312
0.014632334001362324
0.02278849668800831
0.009697175584733486
0.006479877047240734
-0.013643092475831509
0.033495400100946426
0.022584088146686554
0.020095760002732277
0.013683026656508446
-0.03288770467042923
-0.014808356761932373
-0.010240896604955196
0.0060012564063072205
0.02741069719195366
-0.02524023875594139
0.013272206299006939
0.034996189177036285
0.010427282191812992
0.027038881555199623
-0.051049456000328064
0.015698689967393875
0.03357727825641632
0.03232429549098015
-0.0037283343262970448
-0.03208764269948006
-0.006092705763876438
0.05579883232712746
0.030353644862771034
-0.025706134736537933
0.04674343019723892
-0.030629875138401985
-0.018929416313767433
-0.008697710931301117
-0.024197885766625404
-0.04381459951400757
0.044265612959861755
0.030963841825723648
0.009341449476778507
0.055078648030757904
-0.034023307263851166
-0.02122345007956028
-0.00592448515817523
0.019438371062278748
-0.041229426860809326
0.020016618072986603
-0.009700187481939793
0.012522760778665543
0.017571445554494858
0.0054009221494197845
0.037646062672138214
0.011513730511069298
-0.015521134249866009
0.0560215562582016
-0.017771201208233833
-0.02100149355828762
-0.01115844864398241
0.004100464284420013
0.020504971966147423
-0.004937596153467894
0.009019006043672562
0.01657067984342575
0.02402440458536148
-0.0011327983811497688
0.013738244771957397
0.012394323013722897
0.03453325107693672
0.011234257370233536
0.00552034005522728
-0.009633178822696209
-0.007160075940191746
0.030790317803621292
-0.022933878004550934
0.019964776933193207
0.01947891339659691
0.01247105747461319
0.022318098694086075
0.026047246530652046
-0.031142182648181915
-0.02787639945745468
0.004275011830031872
-0.009182394482195377
0.018704017624258995
0.006106377113610506
-0.021038761362433434
0.024050386622548103
0.01302340254187584
-0.03411484137177467
-0.00714271841570735
-0.02108677476644516
-0.0129171721637249
0.02042979560792446
0.018126284703612328
0.010590697638690472
-0.0084887919947505
-0.020732516422867775
0.018230056390166283
0.022176485508680344
-0.0014684573980048299
-0.01528696808964014
-0.006867542862892151
0.003345969133079052
0.029233556240797043
0.008856900036334991
0.0318167507648468
0.001846340368501842
0.006273677572607994
0.027672477066516876
-0.004433481954038143
-0.028703760355710983
-0.024550316855311394
-0.000487164274090901
-0.0005212187534198165
-0.023035241290926933
-0.011289662681519985
-0.008261059410870075
0.05257225036621094
0.02553681842982769
0.04353583976626396
0.004850697237998247
0.02305094338953495
-0.018642347306013107
0.03161082789301872
0.0004919471102766693
-0.007419496774673462
-0.0010227044112980366
0.00390194496139884
0.013409525156021118
-0.0050195264630019665
0.030406255275011063
-0.0012136297300457954
0.041311223059892654
0.024691160768270493
0.007468988187611103
-0.004297469276934862
-0.0010983073152601719
-7.574313349323347e-05
0.04688026383519173
0.01661871187388897
0.012448450550436974
0.015808558091521263
0.007389030419290066
0.012559575028717518
0.012057856656610966
0.012972582131624222
-0.012630526907742023
-0.050574567168951035
0.024174246937036514
-0.010819113813340664
-0.014229120686650276
0.02792864665389061
0.009769611060619354
-0.02174488455057144
0.024665964767336845
0.012747271917760372
-0.009761662222445011
-0.00401940755546093
0.052008651196956635
-0.021104825660586357
0.01999131217598915
-0.025989217683672905
0.0043446701020002365
-0.003229206893593073
-0.007282693404704332
0.0019344940083101392
0.025513265281915665
0.012673480436205864
0.031924184411764145
0.016291484236717224
0.04759051650762558
-0.0015381937846541405
-0.01653660088777542
0.02011360414326191
0.0056188772432506084
0.007618595380336046
0.012299494817852974
0.014231067150831223
-0.02114974707365036
-0.008531954139471054
0.006587406620383263
0.00567637337371707
0.012131762690842152
-0.006862432695925236
-0.046573542058467865
0.009860356338322163
-0.02547740936279297
-0.0005347463884390891
0.01689513772726059
0.037859730422496796
0.008868019096553326
0.006875662598758936
0.006456560455262661
-0.010735874064266682
0.04180197790265083
0.018568119034171104
0.0331127867102623
0.0009262824314646423
-0.005306759849190712
0.054924383759498596
-0.02815619856119156
0.008267592638731003
-0.009336045943200588
0.009124372154474258
0.006354752462357283
-0.018523849546909332
-0.0020201713778078556
0.024393053725361824
-0.03186788782477379
0.02239350602030754
0.0292157381772995
0.04741702973842621
-0.027164515107870102
0.042458657175302505
0.015749366953969002
-0.006944787222892046
-0.03317895531654358
-0.010069986805319786
-0.004458358511328697
-0.032312631607055664
-0.013075735419988632
-0.005964688025414944
-0.005971003323793411
-0.004140024073421955
0.004068649373948574
0.03917407616972923
0.021284040063619614
0.03731820732355118
0.005877064075320959
0.016902044415473938
0.00911782681941986
0.02744419313967228
0.024449797347187996
-0.020879991352558136
0.027525465935468674
-0.004922150168567896
0.016588285565376282
0.010311326012015343
-0.00627500144764781
0.05215492472052574
-0.03300390765070915
0.05396489053964615
0.030442124232649803
0.025383630767464638
-0.034259747713804245
0.028736457228660583
-0.024558916687965393
0.03511343151330948
-0.008202550001442432
-0.00619501993060112
0.0076101175509393215
-0.003975742496550083
0.02733340486884117
-0.008296512998640537
-0.0030583147890865803
0.024040162563323975
-0.028817512094974518
-0.026252159848809242
-0.0019808390643447638
-0.005105883814394474
-0.003876284696161747
0.00011833923781523481
-0.000397552881622687
0.0026851296424865723
0.0012027898337692022
0.010863897390663624
0.028012683615088463
0.003427475458011031
0.008997381664812565
0.05641372501850128
-0.016085997223854065
-0.004136926960200071
0.021950844675302505
0.04601274058222771
0.03731375187635422
-0.008310281671583652
0.034861475229263306
-0.0028947992250323296
0.024846382439136505
-0.01720660924911499
-0.02308947779238224
0.02928510122001171
-0.001959196524694562
-0.00503110233694315
-0.00029265217017382383
0.006596507504582405
0.03459402918815613
0.039957527071237564
-0.017466450110077858
-0.013307743705809116
-0.00877282302826643
0.03630160540342331
-0.012090235017240047
-0.011933828704059124
0.015577040612697601
-0.014329805970191956
0.011482665315270424
0.005242416635155678
0.0001930997532326728
0.0014038285007700324
0.008011442609131336
-0.000650936970487237
0.015338771045207977
-0.048530593514442444
-0.008941585198044777
-0.01404376421123743
0.014602256938815117
0.03679573908448219
0.020633650943636894
-0.0033093327656388283
0.03663913905620575
0.020347364246845245
-0.0006965267821215093
0.012535052374005318
0.029007893055677414
0.019688723608851433
0.017927907407283783
0.009373197332024574
0.02554454654455185
0.03738786280155182
-0.028389926999807358
0.02417350374162197
-0.02915811352431774
-0.0014266141224652529
0.02803199551999569
-0.031361982226371765
-0.056412894278764725
0.005323925521224737
0.01663135178387165
-0.024548152461647987
-0.0025797926355153322
-0.018672317266464233
0.04731782525777817
0.004409095272421837
0.02083955891430378
0.010204690508544445
0.0015965537168085575
-0.046669743955135345
0.04090260714292526
0.03610002249479294
-0.03432890772819519
0.027583828195929527
0.02097315713763237
-0.0161435529589653
0.032964836806058884
0.04346608370542526
0.012795059010386467
0.004314536228775978
0.005470976699143648
0.018581656739115715
-0.02921109087765217
0.014528274536132812
-0.002818964421749115
-0.0003904438344761729
-0.02233959175646305
0.00020948171732015908
0.004705662839114666
0.024248972535133362
-0.02502787671983242
0.02996043488383293
-0.010248267091810703
0.044465016573667526
-0.026962341740727425
0.008848528377711773
-0.006473114714026451
0.007104047108441591
-0.01346683781594038
0.019947927445173264
-0.014703603461384773
0.0026755244471132755
0.0049537112936377525
0.009168487042188644
0.009414286352694035
-0.017584284767508507
0.012896533124148846
0.02484496869146824
0.02073339931666851
0.03326085954904556
0.020194020122289658
0.014845689758658409
0.0064962683245539665
-0.01908152736723423
0.03182483837008476
-0.04078473523259163
-0.032590657472610474
0.019101431593298912
0.020270803943276405
0.03154003620147705
-0.018805744126439095
0.00916894618421793
-0.04299443960189819
0.04397161677479744
0.021356796845793724
-0.0060314298607409
0.004198598675429821
0.04181107506155968
0.02702312171459198
0.005735056009143591
0.023979131132364273
0.039143335074186325
0.031087063252925873
0.009173032827675343
0.013683231547474861
-0.011181293986737728
0.005233434960246086
0.011194652877748013
0.026685332879424095
0.05560183897614479
0.009934302419424057
-0.01811746507883072
0.02971627376973629
-0.014036700129508972
0.02597125992178917
-0.012077134102582932
0.001622342737391591
0.00586799206212163
-0.0033304113894701004
0.002744645345956087
0.0025079594925045967
-0.00017958185344468802
0.029183290898799896
0.01936609111726284
0.0005855952040292323
-0.0326986126601696
-0.0021411627531051636
0.007498500868678093
0.0021205476950854063
0.009882915765047073
0.05737266689538956
0.03937993943691254
-0.011417637579143047
-0.029964037239551544
0.026721302419900894
0.007961503230035305
0.06507827341556549
0.03298515826463699
-0.006530887447297573
0.04544602334499359
0.011743680573999882
0.008699438534677029
-0.012864643707871437
0.007053133100271225
-0.005610327236354351
-0.0055015794932842255
0.0025893650017678738
-0.019188668578863144
0.010966840200126171
0.002991096116602421
-0.009288874454796314
-0.002476530848070979
0.026657532900571823
0.014509128406643867
-0.00532842893153429
-0.008823416195809841
-0.008404077962040901
0.008553056977689266
0.0025247065350413322
0.01845419593155384
0.016007501631975174
0.0043205083347857
-0.024931026622653008
-0.017662307247519493
0.013837476260960102
0.0024719922803342342
-0.02842090092599392
-0.002337781013920903
0.004225091077387333
-0.008483201265335083
0.03416474536061287
-0.030911335721611977
-0.018294963985681534
-0.03034721128642559
0.017038030549883842
0.01790052466094494
-0.032394569367170334
0.041681770235300064
0.038554880768060684
0.015194268897175789
0.012546874582767487
0.0028107387479394674
0.014415188692510128
0.015721291303634644
-0.017801331356167793
0.017389526590704918
0.020273355767130852
0.020542718470096588
0.008792919106781483
0.023318376392126083
0.018166976049542427
0.00823627132922411
0.033618584275245667
-0.00953000970184803
-0.02518513798713684
0.012364228256046772
-0.0006258382345549762
-0.010615373961627483
0.03436607867479324
0.0006335583748295903
0.011715413071215153
0.02642698399722576
0.021540801972150803
0.0425126813352108
-0.022877652198076248
-0.008309009484946728
0.018605174496769905
-0.029871849343180656
0.014487729407846928
-0.016397476196289062
0.021222827956080437
0.028849724680185318
0.002326252171769738
-0.008714932017028332
-0.0149039626121521
-0.009610218927264214
-0.00307893636636436
0.015906013548374176
0.017258916050195694
0.029028452932834625
0.0015028022462502122
0.04402376711368561
0.008426741696894169
0.0035572003107517958
0.01030994113534689
-0.010836059227585793
-0.01830667443573475
-0.04072103649377823
-0.0014318516477942467
0.019207585602998734
-0.038898106664419174
0.03276209160685539
-0.024451574310660362
-0.03663390502333641
0.015546219423413277
0.05088449642062187
0.015856865793466568
-0.020209241658449173
0.04555482789874077
0.00887972116470337
-0.0186361875385046
0.03181317448616028
0.029069382697343826
0.06328484416007996
0.02285189926624298
-0.016834763810038567
-0.004978278186172247
0.012572363018989563
-0.004146255552768707
0.052152883261442184
-0.010452625341713428
0.01312568411231041
-0.014351118355989456
-0.001289039384573698
0.008065528236329556
-0.0036513006780296564
0.0005275779985822737
-0.02530820108950138
0.011544912122189999
-0.0006893120589666069
-0.014737258665263653
0.014211381785571575
0.03249817714095116
-0.0015680502401664853
-0.0036295652389526367
0.0016548819839954376
0.010024025104939938
0.020791370421648026
0.04263511300086975
0.021524980664253235
0.01675962470471859
0.0582386776804924
0.015046210028231144
0.019898736849427223
-0.009282476268708706
-0.009521915577352047
0.006250635255128145
0.01924099028110504
0.02987702563405037
0.005107568576931953
-0.004968536552041769
0.02020127698779106
-0.007769571617245674
0.009493878111243248
-0.015096813440322876
-0.0023505210410803556
0.0025837186258286238
-0.0009105192730203271
0.007900683209300041
-0.022919796407222748
0.006440084893256426
0.01132383942604065
0.030414806678891182
0.004892927128821611
0.013643701560795307
0.0017914267955347896
0.02809559740126133
-0.0043905144557356834
0.006045893765985966
-0.013619299046695232
0.046259667724370956
-0.025857597589492798
0.0020432225428521633
0.015163934789597988
-0.001676884712651372
-0.004966007545590401
-0.018895788118243217
0.016647478565573692
0.03606545925140381
0.0019501937786117196
-0.006405200343579054
0.012377413921058178
-0.003164977300912142
0.027804087847471237
0.02477295510470867
-0.013965126127004623
0.018334845080971718
-0.0005124563467688859
0.022280875593423843
0.005568826571106911
-0.012572097592055798
0.007520413491874933
0.009742777794599533
0.026497716084122658
-0.03145649656653404
0.0018928204663097858
0.030968472361564636
-0.010230102576315403
0.01896027661859989
0.03820095583796501
0.028088878840208054
0.02947651967406273
0.013504437170922756
0.0018611856503412127
0.010833550244569778
0.00222478318028152
0.006879906170070171
-0.004095741081982851
-0.035200923681259155
-0.007275662384927273
0.014965683221817017
-0.02122165821492672
0.016697311773896217
0.02877558209002018
0.01022416539490223
-0.01265505887567997
0.010873759165406227
0.00933846179395914
-0.010623888112604618
0.03779440373182297
0.014413658529520035
0.008785268291831017
-0.023662477731704712
-0.03748020529747009
0.010020075365900993
-0.03816070407629013
-0.017702901735901833
0.007073299493640661
0.0043113455176353455
0.0393344946205616
0.006824702024459839
0.007327587343752384
0.026412345468997955
0.003684536088258028
0.020113587379455566
0.01403941959142685
0.005007159896194935
0.037887901067733765
-0.008513398468494415
0.010470406152307987
0.02532326616346836
-0.033022671937942505
-0.0021977571304887533
0.0007782079046592116
0.00588964531198144
0.01585795171558857
0.027667231857776642
0.03272870555520058
-0.030164586380124092
-0.041716527193784714
0.011238595470786095
0.04673366621136665
0.0012609806144610047
0.02203834429383278
-0.0013754126848652959
-0.008125887252390385
0.002316443482413888
-0.0018591099651530385
-0.017096461728215218
0.0032848056871443987
0.009580861777067184
0.01069238968193531
0.017851093783974648
0.007828393951058388
-0.0011080866679549217
0.019080331549048424
-0.013357068412005901
0.018605073913931847
-0.002467797603458166
0.009350534528493881
0.009639572352170944
0.01587194763123989
-0.011510664597153664
0.008636229671537876
-0.0002917449164669961
0.015974540263414383
0.017335262149572372
0.017224134877324104
0.04175356775522232
0.006946147419512272
0.0037865065969526768
-0.003702094778418541
0.00041354313725605607
0.0021018122788518667
0.005445870570838451
0.04242069274187088
0.01681027002632618
0.01400497741997242
-0.00020952409249730408
-0.019454486668109894
0.04168042913079262
0.001207136083394289
-0.006855011451989412
0.01709108054637909
-0.009080437012016773
-0.042272232472896576
0.03353488817811012
0.025627508759498596
0.020227184519171715
0.0001079211215255782
-0.008169472217559814
0.021709447726607323
0.022465381771326065
0.04127698764204979
0.026715675368905067
-0.043199412524700165
0.010385498404502869
0.0006267279968596995
-0.015688037499785423
-0.014870504848659039
-0.04904582351446152
0.033671531826257706
0.014684724621474743
-0.010729776695370674
-0.034602463245391846
0.025043737143278122
0.02218650095164776
0.024451004341244698
0.021361740306019783
0.015427920036017895
0.03819537162780762
0.010895599611103535
-0.027930481359362602
-0.004094951786100864
-0.02301236428320408
-0.009517015889286995
-0.015125591307878494
-0.00020764301007147878
-0.00827836710959673
0.011186319403350353
0.0017696366412565112
-0.013119344599545002
0.022671155631542206
0.021877611055970192
0.030775632709264755
0.028696581721305847
0.020865004509687424
0.030034726485610008
-0.015587612986564636
0.03049321658909321
0.01499955728650093
0.0030163044575601816
-0.04257873445749283
-0.010678453370928764
0.018990103155374527
-0.0018467403715476394
0.019768446683883667
0.011356392875313759
0.0008716896991245449
0.012915597297251225
0.004063000436872244
0.008328160271048546
0.0005539558478631079
0.028263842687010765
-0.013269542716443539
-0.032013069838285446
-0.02239161543548107
0.016687005758285522
0.021097837015986443
0.009395871311426163
0.04554304853081703
0.035360004752874374
0.00025134001043625176
0.009767563082277775
-0.007092414423823357
-0.00244315923191607
-0.008724979124963284
-0.009933297522366047
-0.011061817407608032
-0.003352008294314146
0.03284057602286339
0.003299472387880087
0.018142014741897583
-0.00361424102447927
0.021228110417723656
0.029361726716160774
0.005346086807549
0.021476436406373978
0.04040703549981117
0.018269261345267296
0.001371045596897602
-0.03800619766116142
-0.0010780171724036336
-0.012392861768603325
-0.009970699436962605
-0.033861998468637466
-0.006933373399078846
0.01765313558280468
0.019361231476068497
0.029831962659955025
-0.03561798483133316
0.051470886915922165
0.03135591372847557
0.03591664135456085
0.011859789490699768
-0.01455173920840025
0.028088103979825974
0.019143976271152496
0.04169834032654762
0.017512524500489235
0.0168397668749094
0.02051149308681488
-0.00335287069901824
0.03985203802585602
-0.02391432225704193
0.01484878920018673
0.027169493958353996
0.0019437572918832302
0.01643208973109722
-0.01670646294951439
0.024962004274129868
0.015079235658049583
-0.0016016087029129267
0.04366535693407059
0.008142665959894657
-0.01765052229166031
-0.008171802386641502
0.006707042455673218
-0.005396663211286068
-0.04528951644897461
0.04715368151664734
-0.010571269318461418
-0.002330825896933675
-0.0011700629256665707
0.029765672981739044
0.035192105919122696
0.014562105759978294
-0.023306213319301605
0.01158498227596283
0.017735639587044716
0.011329476721584797
0.03550446406006813
-0.005797369405627251
-0.00336999143473804
-0.019867820665240288
-0.001885892590507865
-0.019646240398287773
-0.01684381254017353
0.02101047709584236
0.06359804421663284
0.026197537779808044
0.02727344259619713
-0.02031921036541462
0.020191095769405365
0.03659070283174515
-0.0148573387414217
0.039094895124435425
0.031452082097530365
0.018814247101545334
0.017320457845926285
-0.022298729047179222
0.03992139548063278
0.012709067203104496
0.010188388638198376
0.034397855401039124
0.018065400421619415
0.03854437544941902
0.016738947480916977
0.053966980427503586
0.030223937705159187
0.01637234352529049
0.01958402246236801
0.025210591033101082
0.06567519158124924
0.03996366634964943
0.0031398951541632414
0.005469230469316244
-0.0006263804971240461
-0.006716603878885508
0.02507329173386097
0.022077172994613647
-0.001773964031599462
-0.0413401797413826
-0.0008364441455341876
0.012057532556355
-0.004897409584373236
-0.029979100450873375
0.010919658467173576
0.018218522891402245
0.03172130882740021
-0.017614824697375298
0.00314149702899158
0.007883742451667786
0.0338280163705349
-0.015999898314476013
0.006712200120091438
0.007749871350824833
0.027895690873265266
-0.0027003304567188025
-0.014437341131269932
0.045433081686496735
0.02820276841521263
0.021677711978554726
-0.020609017461538315
-0.0089110741391778
0.035626187920570374
-0.02154749259352684
0.01530288066715002
-0.016015058383345604
0.010701026767492294
0.010851469822227955
0.027892880141735077
0.03231073170900345
0.012783857062458992
0.013938864693045616
0.021869145333766937
0.01552470400929451
0.013522825203835964
-0.024095339700579643
0.00277185020968318
-0.012417593039572239
0.021882422268390656
-0.0018603280186653137
0.014833151362836361
0.05946880206465721
0.056638203561306
-0.017394227907061577
0.03780579939484596
-0.006065386347472668
0.010293501429259777
-0.013275797478854656
0.022828126326203346
-0.02071443572640419
0.02792157046496868
0.022388676181435585
-0.04946887120604515
-0.02200442925095558
0.012108059599995613
-0.037823233753442764
-0.006911179516464472
0.00920156855136156
0.06396985054016113
0.003910331055521965
0.030886225402355194
-0.013271097093820572
2.0218776626279578e-05
-0.01672510989010334
0.009931010194122791
0.042204599827528
0.010391484014689922
-0.0024893314111977816
-0.001532863941974938
-0.02075132355093956
0.0018088085344061255
-0.023843010887503624
0.035264693200588226
0.00795409083366394
0.013226429931819439
-0.012748852372169495
0.059060435742139816
-9.866629261523485e-05
-0.0018242009682580829
-0.0030454518273472786
0.001971065765246749
0.0039422400295734406
-0.005146681796759367
0.028093675151467323
0.0008428466971963644
0.004237225279211998
0.035467930138111115
0.03270222619175911
0.06561069190502167
0.026720071211457253
0.0035730719100683928
-0.00776903098449111
0.005915377754718065
0.03729494288563728
-0.022598762065172195
0.021633330732584
0.025233585387468338
-0.002672410337254405
0.019581705331802368
-0.006501178722828627
0.05368702858686447
-0.01153969019651413
-0.005254046060144901
-0.018696576356887817
0.005242194049060345
0.02559650130569935
0.02390040084719658
0.01075932290405035
0.020951466634869576
-0.004026760347187519
0.03760075196623802
-0.012249861843883991
0.01511805783957243
-0.01899036020040512
-0.010209145024418831
0.03077317774295807
0.009570403955876827
0.032669056206941605
-0.00032512311008758843
0.03620467707514763
0.01157654169946909
-0.002995799295604229
-0.0038831194397062063
0.023427870124578476
0.011005034670233727
-0.006608759053051472
0.0035214631352573633
0.028013842180371284
-0.020572571083903313
-0.01871788688004017
-0.011588520370423794
0.015962012112140656
-0.0026536372024565935
-0.005574143957346678
0.0014499592361971736
-0.020297817885875702
0.00470634363591671
-0.0011904271086677909
-0.02425003983080387
0.007337246555835009
-0.009079345501959324
0.007242804858833551
0.03453745320439339
-0.025074688717722893
0.0047119613736867905
-0.019206607714295387
0.00208974233828485
0.012780613265931606
-0.031928494572639465
0.04728730022907257
-0.01823132485151291
-0.007343980949372053
-0.027080977335572243
-0.011911358684301376
0.004457847680896521
0.032751575112342834
-0.033160656690597534
0.014711746014654636
0.01921803504228592
-0.02191975526511669
0.03266591578722
-0.011722441762685776
0.007174511905759573
0.033863723278045654
-0.0038213450461626053
0.02967889979481697
0.007573779672384262
0.016407543793320656
0.030051104724407196
0.006622738670557737
0.04011720418930054
-0.005997549742460251
0.0008158843847922981
-0.008756904862821102
0.006083850283175707
0.015162566676735878
-0.033343829214572906
0.021019259467720985
-0.003804621519520879
-0.014029721729457378
-0.014020318165421486
0.02900112420320511
0.01606132835149765
0.061536550521850586
-0.015531192533671856
0.038085147738456726
-0.012614717707037926
-0.0024886978790163994
-0.01362405065447092
0.027224447578191757
0.016097603365778923
0.023289630189538002
-0.004875889979302883
0.02418353036046028
0.01055834535509348
-0.04391590878367424
0.010648825205862522
0.0026492730248719454
-0.004800845868885517
-0.012833034619688988
0.008681003004312515
0.030268467962741852
0.01401923131197691
-0.028797142207622528
-0.00797394197434187
0.04154231771826744
-0.00906310509890318
0.008027425035834312
0.019186291843652725
0.01826690509915352
0.0009608078398741782
-0.034323327243328094
-0.011105149984359741
-0.0020267467480152845
0.002920852741226554
-0.003387070493772626
-0.012163972482085228
0.009033248759806156
0.04185015708208084
0.03620581328868866
0.01892675645649433
0.01987984962761402
0.005310221575200558
0.010885817930102348
-0.003892697859555483
-0.0002089176996378228
0.03179784491658211
-0.05244443938136101
0.042417012155056
0.0004235202504787594
-0.006397714372724295
-0.02882242389023304
0.024214424192905426
0.003958710469305515
0.001297010574489832
0.012128797359764576
0.02225327305495739
0.008310871198773384
0.004051034338772297
0.01189003512263298
-0.005177689716219902
0.02679556794464588
0.025023311376571655
0.014766446314752102
-0.024331139400601387
0.007043695542961359
-0.04248275235295296
0.03924116492271423
0.015497243031859398
0.01649913750588894
-0.01529602613300085
-0.009764764457941055
0.012253517284989357
-0.00579808559268713
0.033520959317684174
0.016837773844599724
-0.02812829241156578
0.02268972620368004
-0.014345666393637657
-0.0018512372625991702
0.009647352620959282
-0.0025604073889553547
-0.008783355355262756
0.03148667514324188
0.024100802838802338
0.0457770898938179
-0.004994243383407593
0.034932274371385574
0.014384125359356403
0.005118890665471554
-0.021325038745999336
-0.008673316799104214
0.017523586750030518
-0.005239649675786495
0.02001512236893177
-0.03730844706296921
0.0009683773387223482
0.02347240410745144
0.03243381902575493
0.03256167843937874
-0.009552418254315853
-0.0271606482565403
0.009760786779224873
0.054762210696935654
0.0019743728917092085
-0.023062875494360924
0.013772335834801197
0.022405168041586876
0.027610940858721733
-0.0013945882674306631
0.028848709538578987
0.04305039346218109
0.032338324934244156
-0.0078110541217029095
0.019786493852734566
-0.03925830498337746
0.0302366204559803
0.004159109201282263
0.02800687775015831
0.004259051289409399
0.0006207259139046073
0.024958377704024315
0.003975249361246824
0.01944642700254917
0.01723412051796913
-0.003995477221906185
0.009215203113853931
0.02635294757783413
-0.0024246100801974535
0.00691616116091609
0.013314124196767807
-0.008255742490291595
-0.014980054460465908
-0.01617402583360672
-0.008899254724383354
0.030947793275117874
0.024066109210252762
-0.02733825333416462
0.009309064596891403
0.0031533576548099518
0.029887055978178978
0.028907565400004387
-0.037351805716753006
0.025037359446287155
-0.00023742171470075846
0.01965876668691635
0.015800705179572105
0.012246566824615002
-0.013924138620495796
0.004208111669868231
0.013642242178320885
-0.0057673403061926365
0.003644164651632309
0.019119221717119217
-0.002156764967367053
-0.005680103320628405
-0.001957513624802232
0.005966786295175552
-0.0289458055049181
0.04877401143312454
0.0022044703364372253
0.03926290571689606
0.018460305407643318
0.026103006675839424
-0.02059115096926689
-0.04516596719622612
0.04517003521323204
0.027557307854294777
0.018252098932862282
-0.020350012928247452
0.0061477492563426495
-0.0001462084474042058
-0.004842843394726515
0.007779193110764027
-0.027711868286132812
-0.007746354676783085
0.021840374916791916
0.008504015393555164
-0.009168586693704128
-0.0036215055733919144
0.012796303257346153
0.024703197181224823
0.054977886378765106
-0.0034300489351153374
-0.003807649714872241
-0.029208719730377197
-0.055366043001413345
0.0065709431655704975
-0.001635802793316543
0.00438945135101676
0.005132515449076891
0.022345343604683876
-0.013552180491387844
-0.02842683345079422
0.02691296488046646
0.01257448922842741
-0.0006344964494928718
-0.021990053355693817
-0.02977423556149006
0.0002640945604071021
0.017072811722755432
0.009535791352391243
-0.016782956197857857
0.03479410335421562
0.01336298231035471
0.009064801037311554
0.0026642417069524527
0.0014425384579226375
-0.0005902454140596092
0.00550259230658412
-0.026198353618383408
0.025864366441965103
0.03019060380756855
0.03270765766501427
-0.04134247079491615
-0.018914323300123215
-0.0018407029565423727
0.00024102522002067417
0.018223363906145096
0.005840865895152092
0.003712138393893838
0.04651031270623207
0.0037790744099766016
-0.01925687864422798
0.024059711024165154
-0.007689738180488348
-0.003022389020770788
0.015868699178099632
0.00973448809236288
0.0018226542742922902
-0.014012059196829796
0.0007303719758056104
0.034442655742168427
0.0012850093189626932
0.009764949791133404
0.022868994623422623
0.030388575047254562
-0.013574781827628613
-0.0037830809596925974
0.026822129264473915
0.03546740859746933
0.008699586614966393
0.006508993916213512
0.018010491505265236
0.01358778402209282
0.024484891444444656
-0.040026482194662094
-0.00023891108867246658
0.015544526278972626
-0.0088421069085598
0.0025947897229343653
0.003785823006182909
-0.02354886569082737
-0.0014170205686241388
0.002588145434856415
-0.0328117199242115
-0.006285481154918671
0.042565178126096725
-0.007135219871997833
0.0165257565677166
0.03352554887533188
-0.006369633134454489
-0.005063521210104227
-0.03730268403887749
-0.01868227869272232
0.012486045248806477
0.04572495073080063
0.008030116558074951
-0.04209556058049202
0.009218876250088215
0.004543603397905827
-0.013193929567933083
0.005672744009643793
0.005149011965841055
0.002681874902918935
-0.005055760033428669
0.02640034444630146
0.023650599643588066
-0.0003986932279076427
-0.03377605602145195
0.004019102081656456
-0.008172227069735527
0.032576754689216614
-0.017279205843806267
-0.007641155272722244
0.009589570574462414
-0.043913912028074265
0.013200943358242512
0.022732265293598175
0.007338125258684158
0.014280981384217739
0.028325220569968224
-0.016810808330774307
-0.0033627324737608433
-0.019222088158130646
0.0678272694349289
0.04942657798528671
-0.025519514456391335
-0.009053367190063
0.008681012317538261
0.0021066146437078714
-0.03275129571557045
0.0030416310764849186
-0.03139477223157883
-0.008534563705325127
0.042806267738342285
-0.005871122237294912
0.02165796421468258
0.01739632897078991
0.0019954880699515343
0.03672212362289429
0.027016036212444305
0.03676134720444679
0.005212434101849794
0.0034009141381829977
-0.0002499193069525063
0.013697151094675064
-0.028735147789120674
0.02375023625791073
0.014126474969089031
-0.02225225791335106
0.0018788024317473173
-0.025582006201148033
0.039501894265413284
0.0012888706987723708
0.030494829639792442
0.00181052484549582
0.01306674350053072
-0.027251869440078735
-0.024620087817311287
0.00802792701870203
0.015276516787707806
-0.0020806100219488144
-0.007258041296154261
-0.026095477864146233
-0.0036956067197024822
0.015518436208367348
-0.01763911545276642
-0.0135201970115304
-0.0017024495173245668
0.007019929587841034
-0.00487384432926774
0.004340690094977617
0.0036149618681520224
0.009012547321617603
0.03678935393691063
-0.004308417905122042
-0.013055172748863697
0.008030321449041367
0.002416904317215085
0.020005209371447563
0.040093421936035156
0.02427770011126995
0.016549797728657722
0.01706484891474247
0.004306307062506676
0.016869528219103813
0.028244448825716972
0.020334230735898018
0.039368629455566406
0.06674016267061234
0.01382829062640667
0.01706572249531746
0.030229436233639717
0.011621489189565182
-0.024876248091459274
0.033064261078834534
0.012305612675845623
0.02468668855726719
0.02774965390563011
0.0015549932140856981
0.02134109102189541
0.02282457798719406
-0.004481436684727669
-0.006626239977777004
0.015446025878190994
-0.014726769179105759
0.017831245437264442
0.01739954575896263
0.009197057224810123
0.01816335693001747
-0.018273096531629562
0.0005425490089692175
0.016091540455818176
0.033063966780900955
0.002929527312517166
0.0046480209566652775
-0.018938064575195312
0.011724756099283695
0.007175509352236986
0.02450506016612053
0.05380449816584587
0.004576335661113262
-0.010991032235324383
0.018525267019867897
0.00764353945851326
0.0026116135995835066
0.028210557997226715
-0.009271005168557167
-0.023864498361945152
0.02122831717133522
0.010456979274749756
0.03732539713382721
0.04863724112510681
-0.002018432365730405
0.011899753473699093
-0.04053124785423279
-0.019786491990089417
0.018787052482366562
-0.01089000515639782
-0.004483374301344156
0.0021134186536073685
0.024819042533636093
0.003308870131149888
0.017270280048251152
0.05960361659526825
0.015795931220054626
-0.028121454641222954
0.045650988817214966
0.01840747334063053
0.016852259635925293
-0.004211152903735638
-0.007984165102243423
-0.027843555435538292
0.003083775984123349
0.009165110066533089
-0.007831493392586708
-0.028281595557928085
-0.013641194440424442
0.00641465513035655
-0.021386167034506798
0.025650281459093094
-0.011708971112966537
0.03256799280643463
0.05007442086935043
-0.020109592005610466
0.00630232272669673
-0.01828766241669655
-0.0023138527758419514
0.030307503417134285
-0.009466367773711681
0.019263744354248047
0.03492791950702667
-0.02269590087234974
-0.03715537115931511
0.011110068298876286
0.040761951357126236
-0.03784559667110443
0.011801619082689285
0.026533545926213264
0.02331053651869297
-0.01857937127351761
0.011139420792460442
0.04852871969342232
0.007449510041624308
0.03957163542509079
-0.003194536780938506
-0.01863071136176586
0.050908155739307404
0.026962608098983765
-0.005197917576879263
0.01444992981851101
-0.002728651976212859
0.029164373874664307
-0.01737373135983944
0.04061592370271683
0.011250193230807781
0.0031777075491845608
0.001918924623169005
0.01478362362831831
-0.005734102800488472
-0.00702321995049715
-0.008979733102023602
0.024467656388878822
0.0560542568564415
0.010824322700500488
0.008406161330640316
0.010335098020732403
0.005274605937302113
-0.018775708973407745
0.005360690876841545
0.003689146600663662
0.028887391090393066
-0.0027228069957345724
0.028554817661643028
0.021549822762608528
-0.013668624684214592
-0.03491564095020294
0.048176635056734085
0.014581249095499516
0.006032205652445555
-0.003521000500768423
-0.004981331527233124
0.05156708136200905
0.0026691900566220284
0.014321028254926205
-0.027786273509263992
-0.00016233375936280936
0.03213389217853546
0.020616376772522926
0.007044406607747078
-0.01908884570002556
0.02007579617202282
0.018345393240451813
0.0050977906212210655
0.027711031958460808
-0.00910936202853918
0.02148982509970665
0.011934460140764713
0.007498158607631922
0.003493322990834713
0.0185287743806839
-0.008015834726393223
-0.003810502588748932
0.04416994750499725
-0.036199748516082764
-0.012372933328151703
-0.00813506543636322
-0.037379488348960876
0.00010642105189617723
0.008275492116808891
-0.010163088329136372
0.018449965864419937
0.012026224285364151
-0.014072945341467857
-0.0013073120499029756
-0.0022655806969851255
-0.011217058636248112
0.022641431540250778
0.027233289554715157
0.012470671907067299
0.01581118069589138
0.008102111518383026
0.07096493244171143
0.03831712529063225
-0.001930952537804842
0.008381246589124203
0.018319204449653625
-0.01937919855117798
0.01929433085024357
0.020678021013736725
0.016841739416122437
0.035551171749830246
-0.034192461520433426
0.04941471666097641
0.0026459242217242718
-0.012419937178492546
0.02423570491373539
-0.009111782535910606
-0.005585037171840668
0.024152608588337898
0.016901744529604912
0.051614921540021896
-0.029006846249103546
0.022777119651436806
0.014732507057487965
0.03238154575228691
0.04037390649318695
-0.006608416326344013
0.011983074247837067
0.03540142998099327
0.006956347264349461
0.03263404220342636
0.008604105561971664
-0.016922781243920326
0.015422776341438293
-0.004294242709875107
0.006736093666404486
0.007560890167951584
0.0173460952937603
0.0016898504691198468
0.03155229613184929
0.016897911205887794
0.009135701693594456
0.03776980936527252
0.008569702506065369
0.017884891480207443
0.042418695986270905
0.01750749722123146
0.0176132470369339
0.04733425751328468
-0.009928162209689617
0.010951469652354717
-0.00702196778729558
-0.02712475322186947
0.037926316261291504
-0.02055409364402294
-0.01173465047031641
-0.0014929897151887417
-0.005142212845385075
0.004065073560923338
0.006436007563024759
-0.008287031203508377
-0.004088470246642828
-0.04001336172223091
0.022568589076399803
0.014635712839663029
0.021982939913868904
-0.0015633674338459969
-0.004996973555535078
0.0033157768193632364
0.045829083770513535
-0.005088078323751688
0.021057961508631706
0.010101682506501675
-0.0019798430148512125
0.05016030743718147
0.00860209483653307
0.00354972667992115
0.0013382849283516407
0.027624839916825294
0.05586867779493332
0.02892034687101841
0.025115063413977623
0.012994060292840004
0.05646662786602974
-0.006184878293424845
0.04305962100625038
0.031273018568754196
0.009901726618409157
0.0165728572756052
-0.01309514231979847
-0.0009484532638452947
0.01904340088367462
0.0088551240041852
-0.023043595254421234
0.024657800793647766
-0.00972399115562439
-0.028416335582733154
-0.0353878028690815
-0.005959183443337679
0.017327474430203438
0.01914060302078724
-0.023631542921066284
0.03096153773367405
0.04690498858690262
0.04386656731367111
0.04060377925634384
-0.017529094591736794
0.00651975441724062
-0.020902909338474274
-0.046201713383197784
-0.010685773566365242
0.020264366641640663
0.03151988238096237
0.04050270467996597
0.014055943116545677
-0.0070264763198792934
0.025159083306789398
-0.01575389876961708
-0.02002113126218319
-0.019893983379006386
0.013515206053853035
0.03453724831342697
0.031200651079416275
-0.0015259579522535205
0.030365189537405968
-0.007694828789681196
0.019571630284190178
0.01576249487698078
0.021471437066793442
0.011877002194523811
0.020243095234036446
-0.01866096816956997
0.024257630109786987
-0.0028035619761794806
-0.039862342178821564
0.05666365101933479
-0.039804328233003616
0.02787899598479271
-0.005639910232275724
-0.05298890173435211
-0.001229164656251669
0.05499578267335892
0.024163657799363136
-0.01696840114891529
0.01812112145125866
0.0291408933699131
0.07782477885484695
0.017059771344065666
0.018487194553017616
-0.02939235232770443
0.015877118334174156
0.014490397647023201
0.03163396567106247
0.04444896802306175
0.03878338634967804
0.021637452766299248
0.007596661802381277
-0.000396609801100567
-0.040029700845479965
-0.004311173222959042
-0.015896080061793327
-0.02097649686038494
0.05053264647722244
-0.00040935041033662856
0.061985038220882416
0.005084880627691746
0.025130582973361015
-0.022004960104823112
0.013082721270620823
0.014164344407618046
-0.027140887454152107
-0.030643388628959656
-0.0036613005213439465
-0.018793080002069473
0.05137726664543152
0.024460729211568832
0.031769271939992905
0.014027988538146019
0.029174907132983208
0.03818928822875023
0.01486281119287014
0.036607690155506134
-0.013081301003694534
0.020285626873373985
-0.025473343208432198
0.03012390248477459
-0.002510994905605912
0.013701156713068485
-0.010185696184635162
0.024414245039224625
0.005939831957221031
0.010048720054328442
-0.010987311601638794
0.006219739560037851
-0.0249436404556036
0.011473353020846844
-0.004775398876518011
0.0018305621342733502
0.029871223494410515
-0.01387360505759716
0.018877914175391197
0.02666921354830265
0.008473316207528114
-0.004141103941947222
0.045678917318582535
0.00891105830669403
0.010205226950347424
0.04314994439482689
0.03022240847349167
0.021700656041502953
0.02213168516755104
-0.02608785219490528
0.008561325259506702
0.009250515140593052
-0.0020943335257470608
0.0024269833229482174
0.017033366486430168
-0.004454364534467459
-0.010040401481091976
-0.01320684514939785
-0.04374371096491814
0.003952968865633011
0.04626818001270294
0.01596028171479702
-0.019785569980740547
0.0033031590282917023
0.0235271193087101
0.017364153638482094
0.025477271527051926
-0.0013046193635091186
-0.007276755291968584
0.015513489954173565
0.0052379099652171135
0.0010516069596633315
0.004329470451921225
0.0221702940762043
-0.0031283432617783546
0.0073294504545629025
0.014393203891813755
-0.0016694633523002267
0.012509604915976524
-0.00427162554115057
0.005651496350765228
0.041515227407217026
0.0495920367538929
0.019640404731035233
0.02371061220765114
0.019116558134555817
0.05706505477428436
-0.003646458964794874
0.026079071685671806
0.029442626982927322
0.0025984810199588537
-0.005846701562404633
-0.013875283300876617
0.012193264439702034
0.00014853672473691404
-0.007662852294743061
-0.01503710076212883
0.03612416982650757
0.0024739978834986687
-0.021753253415226936
-0.028568411245942116
0.00953037478029728
-0.03246789425611496
-0.008366530761122704
-0.00501748314127326
-0.038671717047691345
0.034398604184389114
0.008969875983893871
-0.018675945699214935
-0.01791955716907978
-0.015007645823061466
-0.016638221219182014
0.029042625799775124
0.03672636300325394
-0.021982867270708084
0.024321461096405983
0.018063869327306747
0.03831612691283226
0.018728608265519142
-0.0007465780363418162
0.006110965274274349
-0.016498126089572906
0.022060692310333252
-0.0033095162361860275
-0.000423634861363098
0.030046911910176277
0.04427315294742584
0.020123064517974854
-0.029650308191776276
-0.01547016017138958
0.04369814321398735
0.0007473404402844608
0.017038950696587563
0.02266213856637478
0.035190291702747345
-0.006619253661483526
0.009828698821365833
0.010094083845615387
0.01689811423420906
0.02411297895014286
0.012089326977729797
0.02106369659304619
0.002715453738346696
-0.0423869788646698
0.0028190389275550842
0.0041640629060566425
0.07676153630018234
-0.005451919510960579
-0.02259807661175728
-0.033348869532346725
-0.030271070078015327
-0.011304362677037716
0.01826530694961548
0.021118439733982086
-0.006097776349633932
0.021255653351545334
0.0274965837597847
0.013928908854722977
0.01297716610133648
-0.028432445600628853
0.05040048062801361
0.044606853276491165
0.018710147589445114
0.0053358180448412895
-0.024941284209489822
0.030428921803832054
-0.03980768844485283
0.024463647976517677
-0.030860615894198418
0.0020752218551933765
-0.01772399991750717
0.02105347439646721
0.029153229668736458
0.0060439202934503555
0.019725313410162926
-0.05381135642528534
0.05600668117403984
0.015721147879958153
-0.011509260162711143
0.008970384486019611
0.01516077108681202
-0.004169904626905918
0.011052122339606285
0.012754304334521294
0.04044903814792633
0.005159296561032534
-0.003034021006897092
-0.034456316381692886
-0.016558697447180748
0.005371284205466509
-0.010627309791743755
0.001577660907059908
0.01679132878780365
0.017055025324225426
0.018989376723766327
-0.02315794862806797
0.032299477607011795
0.023008190095424652
0.015231993049383163
0.047033146023750305
0.024503346532583237
0.011813518591225147
-0.023829832673072815
-0.0037349569611251354
0.024796007201075554
-0.012715044431388378
0.006445456761866808
-0.04039701446890831
-0.002121202414855361
-0.006737521383911371
0.027531424537301064
-0.01860526204109192
0.015519514679908752
-0.03070550411939621
0.02570921927690506
-0.015094592235982418
0.04052240401506424
0.023488186299800873
-0.021121295168995857
-0.0030682338401675224
-0.01278104167431593
-0.0008870448218658566
0.033217206597328186
0.0009191550780087709
0.004108802881091833
-0.031393393874168396
0.004142771475017071
-0.05805188789963722
-0.004779461771249771
0.030701521784067154
0.010466446168720722
0.009735653176903725
0.026928434148430824
0.00015857224934734404
0.00594901479780674
0.007887713611125946
-0.0267628226429224
0.014908610843122005
0.05285016819834709
0.03669388219714165
0.002405137987807393
0.026034381240606308
0.029523752629756927
0.0022080212365835905
0.007782686501741409
-0.029541989788413048
-0.004032376687973738
0.030841704457998276
-0.004415128380060196
-0.002570226090028882
-0.05369667708873749
0.030376916751265526
-0.015453170984983444
0.008057300932705402
0.0005643062759190798
-0.020492255687713623
-0.02685488387942314
-0.0038291597738862038
0.008839951828122139
-0.0017798328772187233
0.015315416269004345
0.02857433445751667
0.017588496208190918
0.0600057914853096
0.043570034205913544
0.008167152293026447
0.013967064209282398
-0.0026040165685117245
-0.0008907878072932363
0.01895495131611824
0.028041336685419083
0.025926362723112106
-0.005607605446130037
-0.021976597607135773
-0.023685380816459656
-0.027418211102485657
0.020980311557650566
-0.020206229761242867
-0.022852426394820213
0.008886460214853287
0.010809973813593388
0.008082817308604717
0.0068435161374509335
0.01899993233382702
0.04235503077507019
0.015114562585949898
0.03152455762028694
-0.0033203065395355225
0.018112244084477425
-0.019966131076216698
0.003605110803619027
0.015412046574056149
-0.007373951841145754
-0.022457782179117203
0.014984444715082645
0.015039131045341492
-0.023113541305065155
0.00824950635433197
-0.018771186470985413
0.015253553166985512
-0.009102609008550644
0.03961116075515747
0.005944557022303343
-0.015211398713290691
-0.0014174662064760923
0.04401233047246933
0.01055899541825056
0.005220475140959024
0.00022967376571614295
-0.003024870529770851
0.04190380126237869
0.025019317865371704
0.009863141924142838
0.04428739473223686
0.021420983597636223
-0.0032967368606477976
-0.0057202912867069244
0.0010914658196270466
0.018037473782896996
0.02680480293929577
0.003752002026885748
0.031618382781744
-0.004186128731817007
0.020396161824464798
0.008200305514037609
0.00683407811447978
-0.015872009098529816
-0.033879246562719345
0.05388761684298515
-0.01662254147231579
0.009435821324586868
0.007339643780142069
0.02251570113003254
0.025593575090169907
-0.016044078394770622
-0.01163860410451889
0.008100967854261398
-0.02213689126074314
0.01864849589765072
0.05567615106701851
0.03442000597715378
0.03795231878757477
-0.012350369244813919
0.018949655815958977
-0.00501730851829052
-0.007518872153013945
0.038561634719371796
-0.002769193146377802
-0.012474401853978634
-0.013487893156707287
0.02317281998693943
-0.0077172922901809216
0.014740013517439365
0.04725843295454979
0.004624424036592245
0.006012622732669115
0.019360395148396492
0.037799376994371414
-0.012675859965384007
-0.02861953154206276
0.009422184899449348
0.0026462601963430643
-0.0016841398319229484
0.004281595349311829
-0.0010239778785035014
0.013501551933586597
0.02132733352482319
0.034939590841531754
0.03884037211537361
0.010268362239003181
-0.0010276760440319777
-0.00027257014880888164
0.012761084362864494
-0.018343821167945862
-0.017201822251081467
-0.0093062873929739
-0.021780699491500854
0.0064757042564451694
0.007608518935739994
0.006267653312534094
0.0013005362125113606
0.033521343022584915
-0.0008877533255144954
-0.016432590782642365
-0.017295990139245987
0.0648123174905777
0.03954117000102997
0.001302977791056037
-0.003945255186408758
0.030450385063886642
0.06317376345396042
0.02313876524567604
0.005795614328235388
-0.015474405139684677
-0.016505397856235504
-0.008187982253730297
-0.0038006429094821215
-0.014788721688091755
0.0025526052340865135
-0.011280808597803116
0.015789633616805077
0.013285135850310326
0.010584999807178974
0.009788915514945984
-0.001481466693803668
0.0021389354951679707
0.01103497575968504
-0.011724858544766903
0.018048226833343506
0.051205866038799286
-0.015960069373250008
0.00989301037043333
0.02423807606101036
0.031141672283411026
0.022930387407541275
-0.031755480915308
-0.02299051359295845
0.022866861894726753
-0.013867626897990704
-0.05444307625293732
-0.0031594550237059593
0.044144678860902786
-0.015889475122094154
-0.011341379955410957
0.022728314623236656
0.04097108915448189
0.028336165472865105
0.015052899718284607
-0.006017714738845825
0.048071812838315964
-0.004310686606913805
0.01935015805065632
0.028540045022964478
-0.0010538018541410565
0.018167156726121902
0.05243077501654625
-0.007369016297161579
0.018370024859905243
-0.04619926959276199
-0.013722563162446022
-0.011077886447310448
0.015076275914907455
0.03420287370681763
0.018931502476334572
-0.020527727901935577
-0.02077714167535305
0.018295975401997566
0.02506459504365921
-0.005875854287296534
-0.0015956030692905188
0.004295472055673599
0.03482738137245178
0.010085184127092361
-0.0043464540503919125
0.0027046219911426306
-0.0025064987130463123
0.003025725716724992
-0.013495131395757198
-0.00832493044435978
0.002311254385858774
-0.024622803553938866
-0.013882657513022423
0.02105683833360672
0.033831484615802765
0.0006511613028123975
-0.004161425866186619
0.017906222492456436
0.0066125718876719475
0.03857646510004997
0.00965989101678133
-0.022138282656669617
0.0055804066359996796
0.045557670295238495
0.02408023737370968
0.052594564855098724
0.017997916787862778
-0.01996162347495556
0.010992285795509815
0.012991747818887234
-0.01868496835231781
0.03809208422899246
-0.01784759759902954
0.026128245517611504
0.003265286795794964
0.04147497937083244
-0.008372346870601177
0.011131531558930874
0.023668870329856873
0.040946830064058304
-0.019745510071516037
-0.010767625644803047
0.010685739107429981
0.016530537977814674
0.025830702856183052
-0.007617897819727659
-9.940547170117497e-05
-0.06707854568958282
0.029064955189824104
0.015784852206707
-0.037387676537036896
0.02007128670811653
0.00043236310011707246
0.019658448174595833
0.015115343034267426
-0.005772498901933432
0.005824458785355091
0.021231554448604584
-0.009773782454431057
-0.010295785963535309
0.01023112889379263
0.015066375955939293
0.016259221360087395
0.033392176032066345
0.006250867620110512
0.028164274990558624
-0.004719800315797329
0.017477460205554962
0.00488867936655879
0.001493313699029386
-0.0001954006584128365
-0.013389235362410545
0.026509203016757965
0.028947528451681137
-0.04041391611099243
0.010296852327883244
-0.007491626311093569
-0.005654661450535059
-0.016663743183016777
0.015718847513198853
-0.023726457729935646
0.001255256705917418
0.011931829154491425
0.015924375504255295
-0.005584432743489742
0.019823823124170303
0.02465682476758957
0.016064058989286423
0.017085574567317963
-0.00976265873759985
-0.006996314972639084
-0.0063081830739974976
0.017677197232842445
-0.011232404969632626
0.03318066895008087
0.0021964197512716055
-0.014082934707403183
0.028383025899529457
-0.036249853670597076
0.01460579689592123
0.035440705716609955
-0.034758832305669785
0.006256881169974804
0.0017928186571225524
0.015359992161393166
0.020565999671816826
0.00021218809706624597
-0.05113011971116066
0.0511067695915699
-0.024066340178251266
-0.015833420678973198
-0.017996693029999733
-0.01596260257065296
0.030739065259695053
-0.018223097547888756
-0.00046610846766270697
0.03620995581150055
-0.019823923707008362
0.02971988171339035
0.027885105460882187
0.01536636333912611
0.016565503552556038
0.012663902714848518
0.03473247215151787
-0.00747257424518466
0.029977744445204735
0.011321229860186577
0.02108464203774929
0.026834329590201378
0.024801673367619514
0.03637463599443436
0.00011654921399895102
-0.020082375034689903
0.004507874138653278
0.01627460867166519
0.04012351483106613
0.03957441449165344
-0.005399563815444708
0.05041055753827095
0.017378635704517365
-0.006893028970807791
0.046941161155700684
0.021433500573039055
-0.009255346842110157
-0.00014475050556939095
0.017080605030059814
0.023215098306536674
-0.005554049741476774
-0.04391913488507271
0.022606514394283295
0.009326895698904991
0.025333940982818604
0.007582138292491436
0.027919786050915718
0.002887425012886524
0.04689556360244751
0.009362525306642056
0.018510594964027405
0.007597970310598612
0.04734889790415764
-0.0041392468847334385
0.036019984632730484
0.02622515708208084
0.010236766189336777
-0.01515634823590517
-0.0005114653613418341
-0.009051215834915638
0.010795447044074535
0.006781038828194141
0.015021339058876038
0.004267638083547354
0.02059749700129032
0.0011115666711702943
-0.012023012153804302
-0.02603773958981037
0.025739312171936035
0.04506952315568924
0.040781594812870026
0.0032611265778541565
0.005501203704625368
2.829629011102952e-06
-0.014420283026993275
0.014015431515872478
0.012473740614950657
-0.008937899023294449
0.009396466426551342
0.03249673917889595
0.0036202515475451946
0.009245933964848518
-0.0009317165240645409
-0.01650620438158512
-0.025363799184560776
-0.012365558184683323
0.011401486583054066
0.012543361634016037
-0.004358505830168724
0.021450143307447433
0.015897750854492188
0.0012767442967742682
0.01124577596783638
0.010683241300284863
-0.010698685422539711
0.030010420829057693
0.05105316638946533
0.0025096614845097065
0.006456261035054922
-0.030385810881853104
0.04211913049221039
-0.009099410846829414
0.006255419459193945
0.002096509328112006
0.020616671070456505
-0.04554569721221924
0.006229727994650602
-0.019475704059004784
-0.012593867257237434
0.03993363678455353
0.062095124274492264
0.022662969306111336
-0.00602878350764513
-0.012799764052033424
-0.001947312499396503
-0.01060787308961153
0.0033668545074760914
0.042410384863615036
0.030929340049624443
0.03105856664478779
-0.03592023625969887
0.027638735249638557
0.011212758719921112
-0.015603470616042614
-0.029704101383686066
0.017247533425688744
-0.018856525421142578
-0.026945145800709724
0.008188639767467976
-0.015484903939068317
0.004048723727464676
0.021263334900140762
-0.00019181745301466435
-0.024361034855246544
-0.010176919400691986
-0.006413416471332312
0.013492877595126629
0.0011582492152228951
0.007401959504932165
0.016510896384716034
-0.02052670158445835
0.01204521395266056
0.023787401616573334
0.02280900813639164
-0.004099536687135696
0.042939938604831696
0.00704696262255311
-0.0255788192152977
0.04949170723557472
0.0005894968053326011
0.022947458550333977
0.018072089180350304
-0.004289133474230766
0.011239316314458847
0.012258457019925117
0.01525187585502863
-0.0003580794727895409
-0.05085593834519386
0.014142002910375595
0.02306491695344448
-0.01880500651896
-0.035556331276893616
0.007541188970208168
0.012148628942668438
0.012975199148058891
0.01228802278637886
-0.013862967491149902
-0.01198540162295103
-0.0019642547704279423
0.030644265934824944
0.0009150364785455167
0.02954946644604206
0.012584011070430279
-0.005324298050254583
-0.0022122205700725317
0.003517551114782691
-0.024948034435510635
0.013819585554301739
0.017884910106658936
0.023584960028529167
0.0034060352481901646
0.034837815910577774
-0.026373224332928658
-0.0011397649068385363
0.001546600484289229
-0.019472291693091393
0.018231995403766632
-0.01760523021221161
-0.0014436410274356604
-0.008953685872256756
0.0491960383951664
-2.492840758350212e-05
0.015191233716905117
0.008716280572116375
0.0017395656323060393
-0.03139955922961235
-0.00785610731691122
-0.0027083721943199635
-0.0658925324678421
-0.00034876205609180033
0.030032295733690262
0.022779738530516624
0.033788811415433884
-0.015806546434760094
0.031179683282971382
-0.01047368161380291
0.020658010616898537
-0.0017362521030008793
0.013112199492752552
0.02046351507306099
-0.001322904136031866
-0.0074767968617379665
-0.021435094997286797
-0.003135926788672805
0.00688368733972311
-0.03110768087208271
0.0046883225440979
0.0006612780271098018
0.020558055490255356
0.0021012146025896072
0.02697715535759926
-0.021491045132279396
-0.007312474772334099
0.018111880868673325
-0.017410537227988243
0.05043541267514229
0.0031318978872150183
0.03887322545051575
-0.04177336022257805
0.007600598502904177
0.024474484845995903
-0.014162703417241573
0.037312284111976624
0.04358609765768051
0.04285373166203499
0.01566406711935997
0.005054213106632233
0.038693975657224655
0.01187413465231657
0.00503176636993885
0.005663817282766104
0.007598706521093845
0.015798520296812057
0.02657187730073929
-0.02234354056417942
0.0201849527657032
-0.0008301356574520469
-0.006903114262968302
-0.0065686823800206184
-0.0002174344117520377
0.016418613493442535
0.016615429893136024
0.012394178658723831
0.017112143337726593
-0.027392974123358727
0.011035064235329628
0.021680166944861412
-0.05360434949398041
-0.011850721202790737
0.024710310623049736
-0.005620541982352734
-0.0022423742339015007
0.009275045245885849
-0.03887572139501572
-0.00695867370814085
-0.009260924533009529
0.011577588506042957
-0.023655766621232033
0.0037673620972782373
-0.018139638006687164
0.030371369794011116
0.021541578695178032
-0.0282331220805645
0.02403148077428341
0.0010172053007408977
-0.02559378370642662
0.016548892483115196
0.01787419803440571
0.014246314764022827
0.06469281762838364
0.005485775414854288
-0.03316566348075867
-0.005020884796977043
0.032949984073638916
0.016406051814556122
0.008725735358893871
0.006541461683809757
0.02839859575033188
3.136385203106329e-05
0.02938384748995304
-0.009151332080364227
0.002901894273236394
0.025586942210793495
-0.01244837325066328
0.0017667224165052176
0.0018076347187161446
-0.014723396860063076
-0.0024326080456376076
0.0037996326573193073
0.009762978181242943
-0.00825471431016922
0.0035024872049689293
-0.010270572267472744
0.01785290613770485
-0.004597823601216078
0.039012014865875244
0.03820226714015007
0.014864499680697918
-0.008373736403882504
-0.00023252521350514144
0.017278002575039864
0.0002944206935353577
-0.021248016506433487
0.02008785866200924
-0.03262888640165329
0.011185930110514164
0.012410035356879234
0.03092535212635994
0.016798127442598343
0.05925861373543739
-0.009085441939532757
0.0027869727928191423
0.004102397244423628
-0.014246765524148941
0.003134854370728135
-0.07082303613424301
0.00031400599982589483
0.027080126106739044
-0.0015363639686256647
0.028055522590875626
0.033657390624284744
0.023093821480870247
0.033969346433877945
0.013905038125813007
0.0037013075780123472
0.009753056801855564
0.028037793934345245
0.004407184664160013
0.00226717465557158
-0.023394182324409485
-0.0006972293485887349
0.0410807728767395
0.019191760569810867
-0.012799061834812164
0.0010752438101917505
0.017590202391147614
0.0029047559946775436
-0.014213751070201397
0.005962858442217112
-0.03587471693754196
0.02694903127849102
0.04680301621556282
-0.027792155742645264
-0.005348849575966597
-0.013413308188319206
0.003415403887629509
-0.002256036037579179
-0.03538618981838226
0.00012462676386348903
0.015644444152712822
-0.03907939791679382
0.019926944747567177
0.024359969422221184
-0.0047560385428369045
0.02501380816102028
0.024571668356657028
-0.0017711656400933862
1.5000127859821077e-06
0.010754125192761421
0.041323207318782806
0.008014977909624577
0.02114558219909668
-0.017818737775087357
-0.040361497551202774
0.013128481805324554
0.02067188173532486
0.007110687904059887
0.0051977019757032394
-0.02718825452029705
-0.007035113871097565
0.007151158060878515
-0.03125590831041336
-0.019196756184101105
0.01977715454995632
0.018489014357328415
0.005316372960805893
0.00888841599225998
0.03302859514951706
-0.042631298303604126
-0.007119656540453434
0.02846681885421276
-0.0038353961426764727
0.02638222649693489
0.03877487778663635
0.02388104423880577
-0.0061242785304784775
-0.010369420982897282
0.006766647100448608
-0.024663574993610382
0.02511809766292572
-0.0013317731209099293
0.016061121597886086
0.020493034273386
0.012286337092518806
-0.007584072183817625
0.023808617144823074
0.009144453331828117
-0.015246756374835968
-0.03723961114883423
-0.0007829294772818685
0.03705383092164993
0.0019344363827258348
0.0139441704377532
0.011648514308035374
0.008525431156158447
-0.02384159341454506
0.022358985617756844
-0.002158716320991516
-0.023480186238884926
0.04567176103591919
-0.003655124455690384
0.011578653939068317
0.012348135933279991
0.010121628642082214
-0.0012433920055627823
0.01187078282237053
0.02078779973089695
-0.00975827220827341
-0.015127751976251602
0.019118161872029305
0.04847168177366257
0.0029142468702048063
-0.03920654579997063
-0.003059700131416321
0.01428780984133482
-0.009300504811108112
0.012641686014831066
0.002731363056227565
0.005524525884538889
0.02675028331577778
0.03351593017578125
0.017056215554475784
0.013925247825682163
-0.00629524327814579
0.013227084651589394
-0.029638521373271942
0.03186587244272232
0.019694644957780838
0.04347691312432289
0.021001897752285004
-0.01998330093920231
-0.010128726251423359
-0.010769536718726158
-0.013836667872965336
0.02396179363131523
0.04764774441719055
0.006582900881767273
0.02284889668226242
0.018619390204548836
0.05484229698777199
-0.02471519261598587
0.03644060716032982
0.01660863496363163
0.015712058171629906
0.0052347141318023205
0.01932118460536003
-0.036845069378614426
-0.0025005803909152746
0.0290712621062994
-0.023697715252637863
0.04674134403467178
-0.0074268123134970665
-0.04120420292019844
0.03680960461497307
-0.019198132678866386
0.012011859565973282
0.0006541571347042918
0.012518896721303463
0.020055031403899193
0.022447247058153152
0.00697910413146019
-0.0014572314685210586
0.0013062587240710855
0.059704750776290894
0.026747362688183784
0.03166217356920242
0.010840621776878834
-0.021915428340435028
-0.0014336364110931754
0.008696460165083408
0.012449805624783039
0.009259325452148914
-0.0024516815319657326
0.017787689343094826
0.012886499054729939
-0.0024040231946855783
0.01378354150801897
0.03145982325077057
-0.0091180969029665
0.03149617090821266
0.030800772830843925
0.034489963203668594
-0.0379798598587513
0.0084212776273489
0.019223181530833244
-0.013447281904518604
0.030482977628707886
-0.02831399440765381
0.014208988286554813
0.04628833383321762
0.005868212785571814
-0.0064493510872125626
0.01506964024156332
-0.012925010174512863
0.012953264638781548
-0.04312460869550705
0.013014073483645916
0.011648238636553288
0.06889630854129791
-0.03166026249527931
0.00097800069488585
-0.011595618911087513
0.015977831557393074
0.005462499801069498
0.05276402458548546
-0.009814755991101265
-0.03325314819812775
0.0027395032811909914
-0.003159291809424758
-0.008187456987798214
0.014802934601902962
-0.009573116898536682
0.00033703804365359247
0.005895182024687529
-0.011257899925112724
0.01904469169676304
-0.0017656368436291814
-0.019006965681910515
0.02548769861459732
-0.0025052623823285103
-0.002013076562434435
-0.008458410389721394
0.027466198429465294
0.012537479400634766
-0.0146061135455966
0.021808931604027748
0.001023954013362527
0.035171397030353546
0.026192832738161087
0.03702877089381218
-0.04542507603764534
-0.004509688355028629
-0.02502402476966381
0.041499510407447815
0.0350772999227047
0.025008708238601685
-0.0028557428158819675
-0.0017056496581062675
0.0061599318869411945
0.029297178611159325
0.0010423294734209776
0.06208551302552223
-0.014426183886826038
-0.002451658481732011
-0.014287460595369339
-0.009148450568318367
0.008191883563995361
0.04480467364192009
0.005410906858742237
0.019802726805210114
0.03521771356463432
0.00221767695620656
0.0013537287013605237
-0.02042311057448387
0.02633090503513813
-0.026871873065829277
-0.0067580388858914375
0.011700320057570934
-0.007009416352957487
-0.0543832965195179
-0.014752332121133804
0.007057639770209789
0.015771400183439255
0.032751016318798065
-0.008883808739483356
0.023701509460806847
0.008546457625925541
0.009121740236878395
0.009755785576999187
0.02759573981165886
-0.04623747244477272
-0.0005955083761364222
0.011498264968395233
0.00494953989982605
0.043882571160793304
0.03174619376659393
-0.01614779606461525
-0.023690184578299522
-0.03371429815888405
0.04447275400161743
0.00301524274982512
0.010600392706692219
-0.007216277532279491
0.08220142871141434
0.021289078518748283
-0.02978321723639965
0.008559361100196838
-0.032838720828294754
0.008085251785814762
0.019064702093601227
0.05461765453219414
0.019182691350579262
-0.03476095572113991
0.029059069231152534
0.004936606623232365
0.05584905669093132
0.014863010495901108
0.010696989484131336
-0.00023585521557834
0.01713726855814457
-0.012964937835931778
0.031801968812942505
0.019864803180098534
0.004339361563324928
0.014257865026593208
-0.008795466274023056
0.022597474977374077
-0.014693494886159897
0.013970213942229748
0.01637265644967556
0.006522137671709061
0.0210893452167511
0.02556251361966133
0.011782167479395866
0.008963145315647125
-0.0033693774603307247
0.0028041971381753683
0.035973161458969116
-0.005644659977406263
0.010591547936201096
-0.0027874396182596684
0.007840090431272984
0.033639609813690186
0.0249186884611845
-0.016432693228125572
0.015009571798145771
0.0030040026176720858
0.05281869322061539
0.021122315898537636
-0.018295787274837494
-0.009860658086836338
0.0033489889465272427
-0.017055999487638474
0.04355575516819954
0.011650137603282928
-0.006267067976295948
0.011712114326655865
-0.04204101860523224
0.04880334436893463
0.02241920679807663
-0.03287792578339577
-0.005976155400276184
0.013986247591674328
-0.003074763808399439
-0.02389276959002018
0.026330221444368362
0.033287983387708664
0.005381150171160698
0.021490592509508133
0.01677509769797325
0.018012281507253647
0.01640218310058117
0.02635238692164421
0.008260444737970829
0.04867428541183472
0.05208573117852211
0.011480703018605709
-0.0047265212051570415
-0.020371459424495697
0.012615025043487549
0.006033515091985464
0.0039657787419855595
-0.010412770323455334
0.005558700766414404
0.030222782865166664
0.04876607283949852
0.027191735804080963
0.034230951219797134
0.03644853085279465
0.0069052972830832005
0.008529545739293098
0.06684929132461548
0.007808507885783911
-0.020163578912615776
-0.019880138337612152
0.01060542557388544
0.008967829868197441
-0.005514469929039478
0.0037824707105755806
0.026409940794110298
0.020478850230574608
0.0028322020079940557
0.03945279121398926
-0.029019447043538094
-0.01642039604485035
0.013131468556821346
-0.008119912818074226
-0.026828940957784653
-0.020925138145685196
0.02079981379210949
0.027885619550943375
0.029744980856776237
0.04662567749619484
-0.022349996492266655
0.0013776463456451893
-0.007704990450292826
0.04936772212386131
0.00937110185623169
0.005665099248290062
0.0017896626377478242
0.024121414870023727
0.03444419056177139
-0.016153108328580856
0.027979610487818718
-3.477549398667179e-05
0.002801966154947877
-0.01632503978908062
-0.009242108091711998
0.030513059347867966
0.020475858822464943
0.02147502638399601
0.022563401609659195
-0.015509102493524551
0.005628404673188925
0.05846453458070755
-0.01703241840004921
-0.01586003601551056
-0.006001123692840338
-0.002663055434823036
0.06737371534109116
-0.012777240946888924
0.018106626346707344
0.0030943003948777914
-0.012356985360383987
0.007343365345150232
-0.014402349479496479
0.003601002972573042
0.0014797837939113379
0.0013176400680094957
-0.02269013598561287
0.030233852565288544
-0.00249527208507061
0.015210671350359917
0.0286448635160923
-0.0031255604699254036
0.010927598923444748
-0.009490998461842537
-0.011747664771974087
0.0687268003821373
0.01609828695654869
-0.011574157513678074
0.000619215948972851
-0.018168071284890175
0.006389413494616747
0.02859417535364628
0.015654373914003372
0.003646677592769265
0.011481587775051594
0.029674354940652847
-0.0024890766944736242
-0.0009002883452922106
-0.041339509189128876
-0.007785301189869642
0.02310365065932274
0.003075053682550788
-0.01262637972831726
-0.019437987357378006
0.0016612584004178643
-0.01245671883225441
0.00025537877809256315
0.006289920303970575
0.0162399522960186
-0.0027251250576227903
0.03616110607981682
0.02506525069475174
0.016193663701415062
0.01295078918337822
0.01594652235507965
-0.029753316193819046
0.05693371966481209
-0.003999474924057722
0.0011353673180565238
0.04646917060017586
0.015109422616660595
0.018618807196617126
-0.0024028224870562553
0.005661866627633572
0.0017254010308533907
-0.00012981586041860282
-0.013298042118549347
-0.006143960636109114
-0.002360167447477579
-0.003990327473729849
-0.002133144298568368
0.03730694577097893
0.014866147190332413
0.02835882641375065
-0.002155765425413847
0.0053383526392281055
0.006692835129797459
0.0050342995673418045
0.015372486785054207
0.022999148815870285
0.00789736770093441
-0.009970123879611492
-0.01868264749646187
0.011447330005466938
0.03920638933777809
0.0276948194950819
-0.02000971883535385
-0.01442897692322731
0.018081044778227806
-0.008871452882885933
0.02910318411886692
0.009273933246731758
-0.018155133351683617
-0.019696727395057678
-0.008140303194522858
-0.0010202898411080241
0.035713061690330505
0.0004229986807331443
0.038908738642930984
-0.025760076940059662
0.06276869773864746
0.016228405758738518
0.030886251479387283
-0.028100542724132538
0.022323761135339737
-0.022404314950108528
0.0014520143158733845
0.03683434799313545
0.014707540161907673
0.00290815532207489
0.039469100534915924
0.035105686634778976
0.035675499588251114
-0.02469928376376629
0.0006916605634614825
-0.004946055356413126
-0.02692168392241001
-0.003688324708491564
0.01860995776951313
-0.021366002038121223
0.01152645144611597
0.03432382270693779
0.026257865130901337
0.02168561890721321
0.017292246222496033
0.01625940389931202
-0.01017011795192957
-0.011890067718923092
-0.0031004829797893763
-0.0015987007645890117
-0.038652174174785614
-0.013661220669746399
0.007140851579606533
0.017592882737517357
-0.0011603978928178549
-0.0010935564059764147
0.02044783905148506
-0.04296812415122986
-0.014539938420057297
0.043739426881074905
-0.010425242595374584
0.006377909332513809
-0.04485723003745079
0.0033460911363363266
-0.0018008939223363996
-0.02247641235589981
0.004689194727689028
0.030257539823651314
0.03320794180035591
0.012250208295881748
-0.013140879571437836
-0.003606789978221059
0.028403520584106445
0.0021643799263983965
0.0032129758037626743
-0.03503992408514023
0.054408226162195206
0.043878842145204544
0.013599060475826263
0.03306247666478157
-0.006655843462795019
0.004259650595486164
0.008026275783777237
0.009924055077135563
0.01590321958065033
-0.018416326493024826
0.005941614042967558
0.02962135337293148
-0.025664590299129486
0.010012461803853512
0.010728600434958935
-0.02758253924548626
-0.005067267455160618
-0.023530712351202965
-0.0315285287797451
-0.029719296842813492
-0.00976681336760521
-0.004614117555320263
-0.03175590559840202
0.01854386366903782
-0.006861745845526457
-0.008599947206676006
-0.015872731804847717
0.01973247341811657
-0.007436481304466724
0.025112001225352287
-0.005427553318440914
-0.013095795176923275
-0.025078866630792618
-0.01405630074441433
0.019023993983864784
0.0232501570135355
0.010965602472424507
0.03638458624482155
-0.009815278463065624
-0.022415224462747574
-0.003050750819966197
0.03529956936836243
-0.020645495504140854
0.016267182305455208
0.0038349784445017576
-0.006143494043499231
-0.029478199779987335
-0.021400682628154755
-0.004754598718136549
0.05680004879832268
0.04597599059343338
0.012796390801668167
0.05529775470495224
-0.0364450141787529
0.020146306604146957
0.011771437712013721
0.0014946537557989359
0.025129759684205055
0.012066568247973919
-0.016293009743094444
-0.0406268872320652
0.02700931392610073
0.011751146055758
-0.020898636430501938
0.0021388803143054247
0.001109844888560474
0.0009530875249765813
0.021123124286532402
0.005359745118767023
-0.042544860392808914
-0.0031466607470065355
-0.015189566649496555
0.03963269665837288
0.020290590822696686
-0.027614280581474304
0.01379314623773098
0.015277080237865448
-0.0030824895948171616
0.021861180663108826
0.01209593378007412
-0.01565161719918251
-0.015446053817868233
-0.03717024624347687
-0.019078094512224197
-0.03589032590389252
0.006047613453119993
0.0021438109688460827
-0.013600203208625317
0.005379090551286936
0.013993384316563606
0.025082798674702644
-0.02822437323629856
-0.015025060623884201
0.012892383150756359
0.06863273680210114
-0.001726760296151042
-0.0017317981692031026
-0.00869279820472002
0.004496036097407341
-0.02467951364815235
0.008456653915345669
0.023312948644161224
-0.007486911490559578
-0.0051000588573515415
0.01530337892472744
0.04489573836326599
0.032683115452528
-0.004092841409146786
-0.0029429446440190077
0.02922113426029682
-0.0009029559441842139
-0.01679905131459236
-0.026978103443980217
0.001009145169518888
-0.0016855167923495173
0.03064139187335968
0.019220467656850815
-0.01647530496120453
0.008035646751523018
0.003290557535365224
0.01964667998254299
-0.046153612434864044
0.0035461238585412502
0.028884941712021828
-0.044941917061805725
-0.0009453415987081826
-0.01751619018614292
0.06711571663618088
0.0466613844037056
-0.03780758008360863
0.023399390280246735
0.04193979129195213
0.03198995813727379
-0.008133098483085632
0.04145305976271629
-0.001201850245706737
-0.043356332927942276
0.008278384804725647
0.03242705017328262
0.011844291351735592
0.0017698036972433329
-0.01646462455391884
0.005776066333055496
-0.03433564305305481
-0.007421643007546663
-0.0026885727420449257
0.025500411167740822
0.0007271614740602672
0.015572421252727509
0.036256093531847
0.0018467014888301492
0.0033924069721251726
-0.003638324560597539
-0.011067220941185951
-0.00012323446571826935
0.013406447134912014
0.019443601369857788
0.011746473610401154
0.018986329436302185
0.009201016277074814
0.002527776174247265
-2.4218257749453187e-05
0.04558577761054039
0.03248676285147667
-0.004932135809212923
-0.015383847057819366
-0.02744806371629238
0.01514298003166914
-0.008530670776963234
-0.0020397091284394264
0.03888503834605217
-0.012628035619854927
0.026699824258685112
0.018729902803897858
0.025104936212301254
-0.0027183128986507654
0.016234293580055237
0.016264131292700768
0.0005873819463886321
-0.00430690823122859
-0.0028533958829939365
0.016766205430030823
0.01733643189072609
0.04844091832637787
0.0323544442653656
0.03811223432421684
0.04425625503063202
0.016376713290810585
-0.0005259417230263352
-0.010506678372621536
0.0007821174222044647
-0.024705374613404274
0.004233799874782562
-0.025015030056238174
-0.005519419442862272
0.049385420978069305
0.03408562391996384
0.01919771358370781
0.03457283973693848
-0.01846860721707344
0.0030733360908925533
-0.0191225316375494
-0.027943478897213936
-0.030220787972211838
0.017543360590934753
0.04662558436393738
-0.000573224388062954
0.07210121303796768
-0.0006703652325086296
-0.0012999291066080332
0.013104170560836792
-0.0020052604377269745
-0.0009931201348081231
0.01061285100877285
-0.016980363056063652
0.01609637401998043
0.026777634397149086
0.02143421769142151
-0.0018830151529982686
0.0157058984041214
-0.0445169135928154
0.022747455164790154
0.01010208297520876
0.0499228872358799
-0.023309888318181038
0.059329986572265625
-0.02281082607805729
-0.03549254313111305
-0.015238836407661438
0.0018439417472109199
0.02418188750743866
0.042479149997234344
0.020948268473148346
0.021282756701111794
0.009594597853720188
0.012523571960628033
0.017622971907258034
0.026748795062303543
0.01243900042027235
-0.010273694060742855
0.040290169417858124
0.01786898821592331
0.009920042008161545
0.020709089934825897
0.026602715253829956
0.006598023232072592
-0.0008946488960646093
0.031095515936613083
0.016022469848394394
-0.0008377638878300786
0.035569947212934494
0.032056886702775955
0.017846789211034775
0.014466896653175354
0.014886518009006977
0.01931038871407509
-0.023389147594571114
0.0379425473511219
0.014417131431400776
0.0023054524790495634
0.0255644079297781
0.004209339153021574
-0.02619686722755432
0.0057554589584469795
0.0027720152866095304
-0.00346235535107553
0.010485000908374786
0.03246523439884186
0.00186372350435704
0.03848963603377342
0.025058839470148087
-0.025774450972676277
-0.005282008089125156
0.01396962907165289
0.03156261891126633
-0.01766897924244404
0.011327325366437435
-0.022311987355351448
0.006407503504306078
-0.02142467349767685
0.0029272132087498903
0.0289839468896389
0.007460490800440311
0.026214776560664177
0.026971185579895973
-0.0018405069131404161
0.020118441432714462
0.07142416387796402
-0.015647469088435173
0.027801549062132835
-0.007409359328448772
0.02692035213112831
0.00030233891448006034
0.03570018336176872
0.01982298493385315
-0.00704893609508872
-0.014584577642381191
0.029496407136321068
-0.0006577886524610221
0.015631631016731262
-0.022827209904789925
-0.021289967000484467
-0.002964550396427512
0.021495595574378967
0.03560572490096092
0.010841190814971924
-0.011800634674727917
0.026708688586950302
-0.044448044151067734
-0.007824045605957508
-0.019056614488363266
0.01837456040084362
-0.0015091561945155263
0.020635293796658516
0.03828326240181923
0.03169297054409981
0.01652608998119831
-0.000529192213434726
-0.004678206983953714
0.007783723063766956
-0.024780239909887314
0.016250627115368843
-0.018248993903398514
0.027221661061048508
-0.007290395442396402
0.0026948442682623863
-0.003846309380605817
-0.009118967689573765
0.03526435047388077
0.04659731686115265
-0.01742214895784855
0.026111824437975883
0.04550744220614433
0.002211592625826597
-0.020503513514995575
-0.04080596938729286
0.004202299751341343
-0.008314165286719799
0.0244158823043108
0.04472413286566734
0.0057971603237092495
0.017782144248485565
-0.02701416425406933
-0.027311446145176888
0.0439106822013855
0.0427512601017952
0.01691623404622078
0.041603170335292816
0.04788544774055481
0.016415733844041824
0.02761467546224594
0.010438356548547745
-0.028945202007889748
0.029666408896446228
0.014148423448204994
0.0007041198550723493
0.031652700155973434
0.02823503687977791
0.030559096485376358
0.026562804356217384
-0.00285480753518641
0.002086936729028821
-0.005361272022128105
0.007199280429631472
0.011035439558327198
0.008554358035326004
-0.002399819903075695
-0.0007992109749466181
0.037802547216415405
-0.0056940168142318726
0.025944309309124947
-0.012718508020043373
-0.004562132526189089
0.01576187275350094
0.0013685625744983554
-0.012813271954655647
0.05946327745914459
-0.014944830909371376
-0.00461694085970521
0.04383300989866257
0.010351228527724743
-0.01909821107983589
0.003607781371101737
0.0036741720978170633
0.0027070932555943727
0.006329461932182312
-0.016794437542557716
0.01834123209118843
0.015777412801980972
-0.03415387496352196
-0.006162918638437986
-0.007212739437818527
0.04210982844233513
-0.02835303358733654
-0.04278958588838577
-0.004446333274245262
-0.01066067535430193
-0.021264497190713882
-0.012791931629180908
-0.006162234116345644
-0.034459806978702545
0.004267415963113308
-0.013688435778021812
-0.0005820757942274213
0.006527959369122982
-0.004238134250044823
-0.023129448294639587
0.04079854115843773
-0.008866925723850727
0.0024601533077657223
0.00679946132004261
-0.019853059202432632
-0.0326964408159256
0.022863514721393585
0.024459484964609146
0.0035262242890894413
-0.00628815870732069
0.03206000477075577
0.026985563337802887
-0.00042156840208917856
-0.0016178308287635446
0.027194999158382416
0.01670449785888195
-0.027448300272226334
0.028258536010980606
-0.011520082131028175
0.004995924420654774
0.038376130163669586
0.049116600304841995
-0.013034696690738201
0.052120696753263474
0.03446448966860771
-0.004866141825914383
-0.002929995534941554
0.006166792009025812
0.03564576059579849
0.009949705563485622
-0.015921177342534065
0.057956263422966
0.04739920049905777
0.022832749411463737
0.03352469205856323
0.04875992611050606
0.032513100653886795
0.02632640302181244
-0.023458216339349747
-0.002746465615928173
-0.008715739473700523
0.006690919864922762
0.011918597854673862
-0.01891847886145115
0.014154205098748207
0.004506024997681379
0.027296356856822968
-0.031202174723148346
0.050960708409547806
0.009135275147855282
0.030400285497307777
-0.0009031238732859492
-0.0075851730071008205
-0.014631406404078007
0.004901692736893892
0.06631112098693848
0.0467093288898468
0.022587886080145836
-0.014524761587381363
0.01278835628181696
0.000977776013314724
0.0001844005601014942
0.030238093808293343
0.04627835750579834
0.006268752738833427
-0.003372377483174205
-0.00960000604391098
0.016293101012706757
-0.011290384456515312
-0.031183337792754173
0.014694910496473312
0.0033803407568484545
-0.021926257759332657
0.01165224239230156
0.012241983786225319
0.0012206899700686336
-0.02996457926928997
0.004703958984464407
-0.014513853006064892
0.011964959092438221
0.0010961734224110842
0.02812119945883751
-0.023481540381908417
-0.004110971000045538
-0.04533030465245247
0.0019242634298279881
-0.002082851715385914
-0.0016089831478893757
-0.01873105950653553
0.008810747414827347
0.015720069408416748
0.039309874176979065
-0.010484153404831886
0.010266066528856754
0.01877492107450962
0.0035528617445379496
-0.022749530151486397
0.03253934532403946
0.022570382803678513
0.003975534345954657
-0.02754594013094902
0.011812012642621994
0.029787113890051842
0.0026126548182219267
0.019498052075505257
0.014920713379979134
0.01502540148794651
0.027257202193140984
-0.0017452673055231571
-0.019677819684147835
0.01495831087231636
-0.02324332855641842
-0.005580639932304621
-0.0002608520444482565
0.041572194546461105
0.0029176510870456696
-0.0005860570236109197
-0.0030901790596544743
0.011779244989156723
0.014584495685994625
0.005907777696847916
0.023214738816022873
0.012427176348865032
-0.02734878472983837
0.012807119637727737
-0.036648139357566833
0.023953907191753387
0.02347889542579651
0.009709535166621208
-0.047539904713630676
0.013751930557191372
0.012831281870603561
0.04238924756646156
0.03509974852204323
-0.025105591863393784
0.03340375795960426
-0.003415872575715184
-0.02180667221546173
0.042766451835632324
-0.013995983637869358
0.02543395571410656
-0.015177469700574875
-0.009786886163055897
0.0002413630863884464
-0.0015965738566592336
-0.02481221966445446
0.018499160185456276
0.009527618996798992
